[2, 5, {"W1": [[1.264595151392319, 0.3085739935367723], [0.06823344730018886, -1.3175180498469778], [-0.19603914774407763, -0.25095236587441233], [-0.058510595127496005, -0.44324219472055737], [-0.031004867114476323, -0.3375247446911533], [-0.9292161676739802, 0.6253375747115076], [0.623308731290595, 1.2088477725026596], [0.03539970396650433, -0.2861199477308237], [-0.3857505673913457, -1.0934877961194358], [0.6946207457757114, -0.7783420787488501], [-0.8377926994344377, -0.145491672078693], [1.0508800962110763, 0.16764059122367314]], "b1": [[-0.00045771008548716884], [-0.000312100785732574], [7.453912662099772e-05], [-0.00026712129514153566], [0.00022686507794317723], [-7.850981966754623e-05], [-2.6293778265737148e-05], [-0.00017983258013587938], [0.00011583201949341094], [-0.0005573905492243685], [-0.00010371739983287994], [0.00027324450694254216]], "W2": [[-0.2955675993311221, -0.2058234080075322, 0.180492674761784, -0.04633621672225135, -0.22194393690978845, -0.06656794144991485, 0.21484743206871557, 0.5704540462932465, -0.3591474694389018, -0.18083098614976942, -0.2320361441656397, -0.6983399459049426], [-0.26667642754996035, -0.2955674730696726, 0.3244716790900396, -0.038080358908771546, -0.4686021445622909, 0.18674395658154097, -0.10287194726030677, -0.5032014734602814, -0.1722340712259035, -0.16991256177825392, -0.2522112663524328, 0.008577631604624656], [-0.6490982374621309, -0.07720918067862387, 0.29241849037187234, 0.24621635703979314, 0.31993185538607466, 0.32215616127276714, 0.4291548401512218, -0.3228081436974677, 0.24421220453528125, -0.5371692494866325, -0.17460313184023257, -0.5527093480974422], [0.30269248292298073, 0.3846324713302257, -0.05705753444576438, 0.5121682299646401, -0.19487455953825442, 0.04344652337217373, 0.04428223865703438, -0.3072905838392397, 0.12611447069638096, 0.5594991955846109, -0.2959123001138929, 0.2596993412444515], [-0.04460189202291478, 0.5107512436502762, 0.13956104350907927, 0.19517456589737656, 0.18564070363870752, 0.07113890812974315, -0.40292899087209855, 0.40171755982956253, -0.39580896718720066, 0.06880962163108024, 0.1767223219304461, -0.24188483543732214], [0.04187702256695164, 0.3371397825407782, -0.006958361142148975, -0.25653300699625636, -0.8417007422432679, -0.2805461878848386, -0.17063003262965026, -0.14907657282587075, -0.27712663263154097, 0.10891705873327408, -0.16590403063850398, -0.03159593395855565], [0.19586598467345684, -0.2469663560128753, -0.08666662111633501, 0.6229965613797133, 0.2523788296012123, -0.37341948666872876, -0.023188688925769307, 0.16294778794246093, 0.3560537703842414, 0.04297709686108178, -0.15317885242826304, -0.21101518166278257], [0.18586057275790546, 0.08999670122077058, -0.1490163644685345, -0.05470491201835062, -0.12024135735560623, 0.2110043812242856, -0.1996828680654328, 0.14033359428753067, 0.24563717269964486, 0.1401119227195609, -0.23953444863641973, 0.3879941146759044], [-0.19534470045788765, 0.12310430747125882, -0.2175468828913816, -0.5034806885305287, 0.06516897026705346, 0.0821877586155406, -0.021524248753876103, 0.07969503145010952, -0.18720565622268542, -0.21286813444344063, -0.04912137303359607, 0.5514781886791997], [0.2347220048770001, -0.15011012645554633, 0.16137749062386636, -0.13809201597901072, -0.13199994695128725, 0.2486956273137802, -0.15259049184155427, -0.48371459229039415, -0.2616227702312986, 0.025504988376057493, 0.03757903629220779, 0.3580676801011255], [-0.20670053674498132, 0.21119376916117003, 0.1229798535558392, -0.04300353826652755, 0.24129721842866214, 0.14213046185770126, -0.2489236671052109, 0.3093766322435223, -0.35240714374808435, 0.017229340016085396, 0.0007568749701021357, 0.12257994694074212], [-0.209314272805546, -0.009965327103264202, -0.04057265642156409, 0.2878745674765957, -0.22973021085455259, 0.020996339124481248, -0.07531666529466685, -0.37468692107199325, 0.7726230491143988, -0.020468721149199176, -0.42915234095796956, 0.40671694261575536], [-0.3090514130631038, 0.1070609390930098, 0.24914341819629662, -0.1871861224976837, -0.12438724473400495, -0.15532494103043712, -0.03733784674346331, -0.4683641967601747, -0.35665453526010793, -0.04064154514677109, 0.3003661854672777, 0.18236883544883103]], "b2": [[-0.00037804675637747144], [9.079206608501019e-05], [-0.001102234458829664], [-0.00044012663147847714], [-0.001173837462876407], [1.0079450214305941e-05], [-0.0004156095534819195], [0.0011772007279284339], [-8.493839196136655e-05], [-7.566104836878546e-05], [0.00016499490161121176], [0.00035303423006877177], [0.0008690060570932064]], "W3": [[0.4796540936691416, 0.19249546575373783, -0.14176167623275254, -0.03407063059926416, -0.5631298513476312, -0.26647107108199264, -0.282996746086402, 0.0750491129642423, 0.17967565787189932, -0.15541962270722356, -0.16322098195752222, -0.4289374091932878, -0.035434819289712656], [0.06883164819375522, 0.12360888226623969, -0.2172106332627065, 0.5515964641100907, 0.3310569434364517, -0.02641446665661596, -0.14637381274507993, -0.08922064820101747, 0.04205879122814063, -0.005151401534959154, 0.13395144464807643, 0.21302981905201737, 0.3788742228093704], [0.3181998632102844, -0.03057033628483229, 0.1077336682257503, -0.10735393936427662, -0.16289223962995752, 0.529967750513644, -0.1275609165820875, 0.5521287975374455, -0.09677510183128801, 0.07018136186008805, 0.3021465768331485, 0.006596433659589775, 0.10903606821521562], [-0.06694809791001878, -0.1318997113602803, -0.046083037145390804, -0.18025019168438813, 0.4523632534607565, -0.04651122393062718, 0.4777619379175783, -0.7447509323607393, 0.005101133923187799, 0.15574595866128965, -0.08154847642714852, 0.30357087346114403, 0.17739631250317334], [-0.07617474007584127, 0.1206463892108969, 0.7797594245280198, 0.07008706099690457, 0.08327404218677577, -0.12203110059726513, 0.037184781249034515, -0.3574870927685488, -0.05506546097615278, 0.6814758154646544, 0.29601485446114784, 0.1781446815560109, 0.3061674585145523], [0.52191263281521, 0.164578284036853, 0.5739922382745254, 0.2968929567708607, 0.045891104822527055, 0.4768983068229994, -0.654313697180164, -0.15846060222405622, 0.07372252306168817, -0.2533850330698606, -0.04351233960984955, -0.17713487320516386, -0.18160183075314412], [0.752114861059677, 0.17410652842654833, -0.014610117405291704, 0.36370025448552473, -0.06559737491972005, 0.24554801842295965, 0.09711931900919957, 0.4508635979415287, -0.3939400207442698, 0.2127682751985631, 0.03420904886732612, -0.3212779471318621, 0.29563941305581565]], "b3": [[0.0], [-0.0001366689063229154], [0.00028908822871857214], [-0.0006532230174298605], [-0.00014602011102014838], [-0.0014753687921630768], [7.589980669900154e-05]], "W4": [[-0.3297270071004541, 0.611692619843834, 0.19393807297991214, 0.2626832861787104, 0.030343589540827286, 0.3421107743991192, -0.705135025082166], [0.028244451259430148, -0.23803847357141192, 0.10693306324996654, -0.017757646939782726, 0.23360170176265352, -0.3166339264292477, 0.6948639900154044], [0.8753122742736551, -0.07796625473700979, -0.005770632898423233, 0.10878326030078392, 0.4772506573981675, 0.7167569406935186, -0.455571418651394]], "b4": [[7.67433802236204e-05], [-0.0001138128685915719], [-0.0002550701613311685]]}, {"W1": [[1.2521277463202187, 0.38933922103486274], [0.06503250415633786, -1.306915200380396], [-0.3065103339503658, -0.32437745121818556], [-0.04870164220980474, -0.47143724059703], [-0.0008018035210750771, -0.4155455756637036], [-1.1692489767101548, 0.5994071510727751], [0.6883179929295951, 1.2693479058022468], [0.03504802263867673, -0.23836250804714293], [-0.3357185503114557, -1.1475632506527198], [0.6853041136231363, -0.6747996965928402], [-0.8994341429970961, -0.131629231170187], [1.0732569347690675, 0.4048111795292756]], "b1": [[0.03972741509312889], [-0.0072980281620045545], [0.23412515602922754], [0.07831983829994553], [0.12702403684225425], [0.16999381130777785], [0.10699840019527268], [-0.09780792546507973], [0.060708259703122096], [-0.19586406136339038], [0.01017853414797892], [0.19629687157644285]], "W2": [[-0.2968961209015176, -0.2058234080075322, 0.18048142667802364, -0.04633621672225135, -0.22194393690978845, -0.08645566983778717, 0.19009900071342659, 0.5704540462932465, -0.3591474694389018, -0.18083098614976942, -0.23330757540830951, -0.6992187884173379], [-0.27012917970868683, -0.29568756206492286, 0.3459623541543705, -0.038103982123737806, -0.46819480744274383, 0.2675459819076418, -0.1316982373530934, -0.5032014634687403, -0.16716803447008188, -0.16991622206923004, -0.1923552818484622, 0.0007067107427431744], [-0.6797560864338759, 0.1075910862232316, 0.39436915141490964, 0.32533130035300295, 0.40281163635453043, 0.2907218174668487, 0.2923743362001355, -0.30108479361061824, 0.42241439563956784, -0.46468058629134196, -0.13194230062596785, -0.5854159485904509], [0.4219271832232802, 0.3277566037793799, -0.07640426202894292, 0.4937610219579248, -0.21093528804977546, 0.07660578471776741, 0.29397789510177574, -0.3190698371932913, 0.07951382706296509, 0.5260590960754056, -0.3195349606229677, 0.3953340898048547], [-0.04453790369052739, 0.5068033434786454, 0.12783351302486698, 0.1947734035120739, 0.18600798633852567, -0.013253340866164625, -0.40310926946251985, 0.4000193509787108, -0.4017693700802133, 0.06365345016657635, 0.12404850912391355, -0.24164540065048382], [0.041873591861625745, 0.3371639920661558, -0.006958551290176927, -0.25652521729554845, -0.8416975387884416, -0.2805461878848386, -0.17064254305480206, -0.1490706452623763, -0.27711544618831113, 0.10893296674654498, -0.16590403063850398, -0.031603823288684135], [0.19218010459725376, -0.27852483443725673, -0.10617374673463754, 0.6088986191684403, 0.23710292138850658, -0.37678551400200044, -0.02539932933789838, 0.1604182314616145, 0.3241849734349568, 0.03300750057343466, -0.1597057680666543, -0.21621288203573438], [0.15123870269894943, -0.04856443114773413, -0.12359490684325619, -0.1116172185954584, -0.17769580273798993, 0.5918956893412585, -0.29650622485821226, 0.1201846209081269, 0.13661853352332157, 0.07565702513097493, 0.004347616610000055, 0.33820939657635213], [-0.09678812445842448, 0.12442681153802554, -0.24468996525721662, -0.5027754805886601, 0.06605627306181797, 0.027635410873466364, 0.22928930607465342, 0.07989685382283479, -0.18654882733815342, -0.2084603346637675, -0.1353870762002548, 0.6654504329823476], [0.13046574237132566, -0.1523350546980097, 0.23859360061304377, -0.1398639894931601, -0.13250555691597463, 0.4885550624324995, -0.4341514167459669, -0.48374590265635414, -0.24607616570879032, 0.021427079064802554, 0.24752285076502348, 0.2377682693072499], [-0.20771924227316574, 0.22087741291582128, 0.14826467998042955, -0.03974148699700229, 0.2446193133289086, 0.22766473243020272, -0.26006007983586604, 0.3108903146243281, -0.34055592759894837, 0.022837924028601287, 0.05418836842004329, 0.11824130904069383], [-0.14951761395732333, 0.02707160312744374, -0.03919451544979007, 0.303276551261859, -0.2143741059558878, 0.01671401888372882, 0.07447012035423957, -0.36897305549679194, 0.8061382871059009, -0.0015786958153366027, -0.4599047918839926, 0.478456322765569], [-0.30674892695073613, 0.08990385360721849, 0.2858165248811902, -0.19664109296527496, -0.13472359195574835, 0.05012521540059935, -0.06386381677613617, -0.46930062755405483, -0.3638410823417464, -0.043874538388925646, 0.43444814971281603, 0.17562999731873444]], "b2": [[-0.04057045364026323], [0.07691389941193476], [0.24594092045094884], [0.19022410850629293], [-0.09306228346724299], [-0.00012771367265768078], [-0.07505251513007685], [0.023239724769278616], [0.14147582357653513], [0.012722613677059241], [0.08138900302702926], [0.2271304968656122], [0.14273453754843632]], "W3": [[0.4796540936691416, 0.19249546575373783, -0.14176899298545365, -0.03459003978243881, -0.5631298513476312, -0.26647107108199264, -0.282996746086402, 0.07487789697018911, 0.17942821194185787, -0.1556269774850201, -0.16322098195752222, -0.428944808633602, -0.035434819289712656], [0.06887347670372512, 0.08056151543628444, -0.29691225588901465, 0.7278994013413588, 0.27532378262050233, -0.02643151978565508, -0.19241771123984802, -0.12130195665966158, 0.2752408486615446, -0.09862239475844706, 0.052300728075751715, 0.26447161106951506, 0.3182721678779889], [0.3185849788155619, -0.012057712838416727, 0.11904046187573454, -0.12344255371305228, -0.17579172922470826, 0.5299546882144287, -0.14485122383684507, 0.5773120778228995, -0.07360084755558707, 0.11114410958234658, 0.3098912162387978, -0.03542824447673505, 0.1294879532612719], [-0.06694809791001878, -0.13221222728457452, -0.04263669514286338, -0.18172069126130483, 0.44903057846847866, -0.04651122393062718, 0.4765236620887118, -0.7469527569876991, 0.005052685390032068, 0.15317991470285253, -0.08216614912797965, 0.30518217457175223, 0.1774206838867102], [-0.07718687925453116, 0.134309092584639, 0.8508044189162344, 0.04978362346472918, 0.1373233007895252, -0.12200657722251758, 0.09295967661526235, -0.33672039731469544, -0.18828727368804904, 0.7081860379544954, 0.34486101650321027, 0.242850972447126, 0.33175067941397707], [0.522513216162646, 0.1237644398118477, 0.6117569756161817, 0.4408060004363475, 0.06521560893254082, 0.4769462783201688, -0.6247534230882184, -0.20175504330431526, 0.11852777435932371, -0.35201942376520656, -0.07122231146350079, -0.013294511684917359, -0.22768257729193014], [0.7494480323040086, 0.29157923750147174, 0.0944407994825256, 0.1479800465367259, -0.07069553793361788, 0.24550743424833577, 0.0613589286420761, 0.5965827402519129, -0.49543150446291634, 0.4939902138849115, 0.17020696914567265, -0.5016878791669522, 0.4609743974059738]], "b3": [[-0.0020492787135849826], [0.13063410478473264], [0.021963394659915175], [-0.008821479369034034], [0.0320667338542228], [0.18338728676340604], [0.10106229327675635]], "W4": [[-0.3297240267729129, 0.7502038890099709, 0.14559688004762242, 0.20036864560705256, -0.14380261302375447, 0.4739096027610257, -0.8042459154543076], [0.028242896086277433, -0.42852816679897043, 0.28673331344212516, -0.04113482408453922, 0.45530013153774596, -0.4110651045495678, 0.9711196144874851], [0.8753108586108754, 0.04761148704343695, -0.07070520889841773, 0.19868201306553668, 0.5707799347946066, 0.7382966980048804, -0.5363545861761407]], "b4": [[0.19324807403761962], [-0.04017702579551712], [0.12216408632139042]]}, {"W1": [[1.2311134234614278, 0.5303637202651273], [0.05546178626225054, -1.336320579056378], [-0.33709813383350556, -0.4599219760284066], [0.020288911639039103, -0.557272708572913], [0.0340454448575194, -0.5003417173599812], [-1.261949270256507, 0.5838159303583882], [0.7703232998195498, 1.3354289767622503], [0.033073771712879056, -0.22676342659186013], [-0.2630984493947937, -1.2415798941560081], [0.6760155010139699, -0.6354396445340872], [-0.9797582444748609, -0.12338731264013902], [1.075417298690879, 0.6295172741406149]], "b1": [[0.10143340154288034], [0.12250031517341763], [0.3534671281560614], [0.16668335880484358], [0.2631930026730877], [0.22192719638291813], [0.12151831396213562], [-0.11435959449927428], [0.2116698121689545], [-0.26813262970239576], [0.0126215894577495], [0.27085892886688784]], "W2": [[-0.2968961209015176, -0.2058234080075322, 0.18048142667802364, -0.04633621672225135, -0.22194393690978845, -0.086455669837791, 0.19009900071342298, 0.5704540462932465, -0.3591474694389018, -0.18083098614976942, -0.2333075754083099, -0.6992187884173379], [-0.2747543739619948, -0.29722469354324343, 0.3567495754829973, -0.03808236634659489, -0.46600082843623575, 0.28929320591919827, -0.14870643837380496, -0.5032014634687403, -0.16756451622604487, -0.16991622206923004, -0.1748141057345547, -0.010046262078805811], [-0.7034840843270863, 0.27970601614502894, 0.5252910337825608, 0.4356895950844368, 0.5287351653888694, 0.20170427876467148, 0.1672271169072018, -0.2963019687889737, 0.6106844077054567, -0.43526531883201863, -0.12720727398496165, -0.6074363986141055], [0.5015355184083334, 0.313329454366717, -0.09941608621609882, 0.484107412351474, -0.2238538284967071, 0.08815972494313962, 0.47027855768687366, -0.31988460510827155, 0.06485268988108356, 0.5212484011550157, -0.35469171449476944, 0.513395994129522], [-0.044106438968534535, 0.5220481881493294, 0.13844600489640974, 0.20492878214497925, 0.1973598800307429, -0.02303142976809222, -0.4032067485056114, 0.40017290555859736, -0.38382411389185306, 0.06473732014082531, 0.12021172260104303, -0.2397361600417694], [0.041873591861625745, 0.3371639920661558, -0.006958551290176927, -0.25652521729554845, -0.8416975387884416, -0.2805461878848386, -0.17064254305480206, -0.1490706452623763, -0.27711544618831113, 0.10893296674654498, -0.16590403063850398, -0.031603823288684135], [0.19279076054075875, -0.2869215999846679, -0.11302115130723436, 0.6041438313584678, 0.2318304691228035, -0.3784577741418289, -0.025192816514188573, 0.16020381894171012, 0.31493423230788264, 0.03193504650872672, -0.16152952767991288, -0.21600816490631952], [0.15464272085227804, -0.09227992952823992, -0.12279220995516024, -0.14339421128959987, -0.2070178154494091, 0.7153228690172877, -0.2933182658458224, 0.12002851036313542, 0.08431760832533337, 0.0734771897418335, 0.06924842567333749, 0.32125752399567326], [-0.0393187259921428, 0.11276516273445827, -0.27696014151325493, -0.5149118544517731, 0.047331681547617084, 0.031219179600271336, 0.3745800899389749, 0.07987814639828404, -0.2016289585923944, -0.2095023708114634, -0.17085266388461073, 0.7572770375422987], [0.09925206288634708, -0.15595418788361073, 0.2807321324463116, -0.13719629452873056, -0.12142234787206817, 0.551943662442484, -0.5397605283247107, -0.4837459026563546, -0.24497135672887627, 0.02138734581471075, 0.31703403674779584, 0.1742790497964207], [-0.21394282180308186, 0.24035274535342083, 0.17922344423054426, -0.026905642723772872, 0.26223198111667023, 0.2567941954756566, -0.28996395647733136, 0.3117182828965799, -0.3190953566850428, 0.027704546853116966, 0.08075420259669358, 0.10524457482958227], [-0.12696803736670256, 0.058125622941514854, -0.03394190741583706, 0.32337838626936627, -0.19585038751459108, -0.0241676342449398, 0.1316955685305298, -0.368635701637487, 0.8421730403986083, 0.0006285711572390955, -0.4953690218148347, 0.5252882387353988], [-0.29703123877582965, 0.07593644020725597, 0.3043545546839976, -0.2050754223194261, -0.13879539959922552, 0.13117039285724658, -0.05928772637982997, -0.4693015841057142, -0.37874872983808616, -0.04401427137325611, 0.4796345001805972, 0.1767213276912295]], "b2": [[-0.04057045364026834], [0.0878877353945858], [0.4553320448931809], [0.2991435963459852], [-0.0687787636652244], [-0.00012771367265768078], [-0.09050996113095583], [0.0203409163445092], [0.190958619031191], [0.021172629652936807], [0.129530651326149], [0.2917264392537287], [0.1908717859974551]], "W3": [[0.4796540936691416, 0.19249546575373783, -0.14176899298545365, -0.03459003978243881, -0.5631298513476312, -0.26647107108199264, -0.282996746086402, 0.07487789697018911, 0.17942821194185787, -0.1556269774850201, -0.16322098195752222, -0.428944808633602, -0.035434819289712656], [0.06887347670372512, 0.07456096641676936, -0.42632323050678717, 0.9246598681843416, 0.2584458396349295, -0.02643151978565508, -0.20845526664495032, -0.07575737229528276, 0.4884336719467342, -0.12387886989286855, 0.00893942823055511, 0.3184239286686833, 0.3209459291502757], [0.3185849788155619, 0.003737204219140378, 0.1001356466974135, -0.12616079992190163, -0.18029992576985182, 0.5299546882144287, -0.14865679016705913, 0.6078351257614637, -0.05957027128132344, 0.14144782764243732, 0.31647439620526724, -0.06127700831605165, 0.15048527016058966], [-0.06694809791001878, -0.13199442735502692, -0.007731894981349874, -0.16328564128998171, 0.4528765521867504, -0.04651122393062718, 0.47955334961094503, -0.7451762375559186, 0.006977190794694463, 0.15481385128728314, -0.07455880897268648, 0.32848864537492023, 0.1811340286022162], [-0.07718687925453116, 0.130084540929312, 1.0648996008718614, 0.020475008171833727, 0.16456099628109186, -0.12200657722251758, 0.1168091504492101, -0.37431017787608833, -0.30368413752522383, 0.7096312289827218, 0.3944948830350772, 0.3218915574068085, 0.3303165992115957], [0.522513216162646, 0.08881241236867927, 0.7218487192197354, 0.5201678052033174, 0.08444377250306606, 0.4769462783201688, -0.6095133344269579, -0.25901103899737843, 0.12286613088628709, -0.42526315963892497, -0.07704495122783267, 0.1128335933728873, -0.2653561286971305], [0.7494480323040086, 0.340934392269106, 0.1252942829469562, 0.07858119042083937, -0.0744676903675701, 0.24550743424833577, 0.060408122927975684, 0.6670843812544088, -0.5444970014244734, 0.6039667012001636, 0.22119670707833924, -0.5772496423329317, 0.525264587927777]], "b3": [[-0.0020492787135849826], [0.21685324463193806], [0.025899861361770932], [0.024650428760810153], [0.11073409753119022], [0.2682074272165904], [0.12046426668581489]], "W4": [[-0.3297240267729129, 1.0733293147264338, 0.14488762821419773, 0.16842800698850388, -0.33004727203923323, 0.5265092113156333, -0.8153771378958167], [0.028242896086277433, -0.47513982550415224, 0.3616779880991891, -0.04601881067109483, 0.5515895932123643, -0.45490318496940807, 1.1290457307913004], [0.8753108586108754, -0.0790685391230306, -0.10253096906372522, 0.24979508608286066, 0.8605995889010469, 0.8986663560874293, -0.6247826805600958]], "b4": [[0.30205817954088093], [-0.005367227691321831], [0.17956616512113208]]}, {"W1": [[1.2251364760912578, 0.5750376081454377], [0.051153835038597405, -1.3430663570159205], [-0.3436693942792705, -0.4983558401553938], [0.054075959112553064, -0.5942041327104747], [0.04923136458180197, -0.5278611293436273], [-1.2887412284974231, 0.5782328179634447], [0.8023292309308123, 1.3720083003440906], [0.033006799411195574, -0.22650177728666213], [-0.2178646583074657, -1.2824145166403167], [0.676364175113256, -0.6339483230263062], [-1.005852651449267, -0.13134263377998498], [1.0772845616110622, 0.6911871805759591]], "b1": [[0.10088844731137998], [0.19411022506176623], [0.3854731501405394], [0.16696912776931022], [0.2853817771208136], [0.2280137182940093], [0.10350490017682698], [-0.11478416188136722], [0.2307165925308912], [-0.2692994110331473], [0.009977778787412999], [0.27437419470188823]], "W2": [[-0.2968961209015176, -0.2058234080075322, 0.18048142667802364, -0.04633621672225135, -0.22194393690978845, -0.086455669837791, 0.19009900071342298, 0.5704540462932465, -0.3591474694389018, -0.18083098614976942, -0.2333075754083099, -0.6992187884173379], [-0.27680913247966066, -0.29961132079656305, 0.36006838517182826, -0.03908977454734267, -0.4650421341326122, 0.29555049116506754, -0.15521239612253435, -0.5032014634687403, -0.16973240525558633, -0.16991622206923004, -0.16965003785664554, -0.014562485589141026], [-0.7140235240116533, 0.3228128271219402, 0.557592436735295, 0.4651054771355307, 0.5625683444183037, 0.1748567584156397, 0.14055724933724845, -0.2962476826979799, 0.6564049658507491, -0.4344372978131019, -0.13251567430101607, -0.6077931774928349], [0.523519463804645, 0.3126545833096476, -0.10834473065270128, 0.4818943240865757, -0.22974998792092993, 0.09213354373232523, 0.5213474224649398, -0.3198907046981951, 0.06328403339478328, 0.5211313556107207, -0.3661994717385575, 0.5483274677640537], [-0.043869093834888365, 0.5279309138250534, 0.14190354861710805, 0.20859281757441772, 0.20137279537871544, -0.02726874936840057, -0.403457813808015, 0.4001778269115024, -0.3774505056883255, 0.06479766472705786, 0.11857230038368319, -0.2391786673726662], [0.041873591861625745, 0.3371639920661558, -0.006958551290176927, -0.25652521729554845, -0.8416975387884416, -0.2805461878848386, -0.17064254305480206, -0.1490706452623763, -0.27711544618831113, 0.10893296674654498, -0.16590403063850398, -0.031603823288684135], [0.19306936853000034, -0.2873282008222585, -0.11345646525518042, 0.6039185886375369, 0.23157270048657888, -0.3788284534342161, -0.025181987164117504, 0.16020179243976282, 0.3143967964229124, 0.03192073787124744, -0.1617724944815849, -0.21561353784896964], [0.15616783240593546, -0.1137421774764127, -0.1222221134744891, -0.15611874467845271, -0.21404052485041122, 0.7438422778445717, -0.30487437901791714, 0.12002851036313542, 0.06164136390267979, 0.0735032608525226, 0.08793065487292509, 0.3101623215724762], [-0.020353429407370244, 0.10502630869379179, -0.29469941641051944, -0.5218800263919703, 0.03416490745156883, 0.03286772217896912, 0.4221804779072255, 0.07987814639828404, -0.21062847876881552, -0.20957160857951757, -0.18330782522196415, 0.7876578121229166], [0.08509573731453825, -0.1625549137095907, 0.29305180407503684, -0.13947849391638775, -0.1169733981363139, 0.5685332624056502, -0.5764089844333163, -0.4837459026563546, -0.2501772868369452, 0.02138734581471075, 0.3362843271659688, 0.14847553520249165], [-0.2175936226146397, 0.24257882486940152, 0.18826480781160052, -0.024370777896234364, 0.2681635540292311, 0.26230988797406196, -0.30264167719660345, 0.3117269183160385, -0.31628251078392716, 0.02784412940223491, 0.087374552709579, 0.09938368316031043], [-0.1195387664721319, 0.07439508251362915, -0.03175870801259112, 0.33265466399415833, -0.18998421774985733, -0.03429363458988684, 0.1555184198755915, -0.36862734685063536, 0.8591688179881147, 0.0007450143055085859, -0.5073584523087065, 0.5451444271045743], [-0.29596694679088875, 0.06710080603876441, 0.3114669725547724, -0.20933740286728836, -0.13817565484391964, 0.1528194494369871, -0.06557732135123018, -0.4693015841057142, -0.386978571025755, -0.04400986292171005, 0.4931366700414295, 0.17237780610309267]], "b2": [[-0.04057045364026834], [0.09046615829667702], [0.5042729483370277], [0.32044711075776106], [-0.0629207024428696], [-0.00012771367265768078], [-0.09101337141594548], [0.01594565415684754], [0.19066363554889845], [0.019976404683002016], [0.14035433548411774], [0.31325160879997493], [0.20356379183821718]], "W3": [[0.4796540936691416, 0.19249546575373783, -0.14176899298545365, -0.03459003978243881, -0.5631298513476312, -0.26647107108199264, -0.282996746086402, 0.07487789697018911, 0.17942821194185787, -0.1556269774850201, -0.16322098195752222, -0.428944808633602, -0.035434819289712656], [0.06887347670372512, 0.07152077870128662, -0.4675499572500337, 0.9810209416566678, 0.25706166719766577, -0.02643151978565508, -0.21055781951638045, -0.06112695405658124, 0.5454668524436568, -0.13141494141903728, -0.003875753959523544, 0.3341234565192346, 0.32314761502715483], [0.3185849788155619, 0.008684417563816785, 0.09446532361186936, -0.12677561343582042, -0.18187764868255876, 0.5299546882144287, -0.14912992789818147, 0.6167669057465566, -0.05713229398091045, 0.1513188545596113, 0.31951917544417774, -0.06869684604474541, 0.15764735251304418], [-0.06694809791001878, -0.13119353089576466, 0.012946896698199555, -0.15467140309741637, 0.4543843485310754, -0.04651122393062718, 0.47998981243921807, -0.7427064246782121, 0.008557525974746247, 0.15795039716903675, -0.06902493483669501, 0.33886517358629104, 0.1852125628250101], [-0.07718687925453116, 0.12811176450520434, 1.130229871990666, 0.014538732655073362, 0.16923754156759938, -0.12200657722251758, 0.11981537245791092, -0.38800284237069443, -0.32817356608270415, 0.7060538666588118, 0.40778693252962395, 0.3457525393394239, 0.3281894351804623], [0.522513216162646, 0.07581176142400581, 0.7533524353021639, 0.5517824354305637, 0.08992682415310163, 0.4769462783201688, -0.6077528408023415, -0.2767224668851901, 0.13603797797388714, -0.4527880524630137, -0.08171169317858847, 0.15413262416073667, -0.2787626709584496], [0.7494480323040086, 0.35885390846407433, 0.1293532034032717, 0.04258412898503186, -0.07862773911055315, 0.24550743424833577, 0.06023952524666832, 0.6872001505905672, -0.5704127588966211, 0.6420508482187566, 0.2384922582564311, -0.6122274502003033, 0.546634125104781]], "b3": [[-0.0020492787135849826], [0.23237817480565967], [0.03035732334054702], [0.041445700166026916], [0.13156432089853506], [0.2855056574508873], [0.12355050347257823]], "W4": [[-0.3297240267729129, 1.163303452605026, 0.14310616700729886, 0.1608372462115836, -0.3821557692071762, 0.5355592989267428, -0.8254302631424372], [0.028242896086277433, -0.4929213406210889, 0.3833219766346126, -0.04862936898996585, 0.5780013718174001, -0.47281911110989777, 1.1797319624752944], [0.8753108586108754, -0.0960476250332261, -0.11679434726089172, 0.2638808460596937, 0.9326536568341379, 0.9612711627891458, -0.6658575640884186]], "b4": [[0.31923513881099347], [0.0053998812136258605], [0.19372982569702013]]}, {"W1": [[1.2266283268912728, 0.5966443578414733], [0.05388383247681255, -1.3494467922072468], [-0.34920886935418477, -0.5146092894511527], [0.07067250602180135, -0.617181866933396], [0.05607977377032839, -0.5398949947660099], [-1.299516286918272, 0.571532230148477], [0.8182538448551747, 1.3988570301375176], [0.03299777179225442, -0.22646814460912273], [-0.19202891404824507, -1.305800244485625], [0.6773159666762947, -0.6336688226578894], [-1.01804783466504, -0.141661851187744], [1.0832387727218027, 0.7192002725971003]], "b1": [[0.09831203994601902], [0.22261613842627268], [0.402428084691714], [0.1531629741070646], [0.2905406304121578], [0.23006183383252127], [0.09424086195092453], [-0.11484076400094986], [0.23433478768567034], [-0.2675384760443053], [0.012676127732157845], [0.2760024122217616]], "W2": [[-0.2968961209015176, -0.2058234080075322, 0.18048142667802364, -0.04633621672225135, -0.22194393690978845, -0.086455669837791, 0.19009900071342298, 0.5704540462932465, -0.3591474694389018, -0.18083098614976942, -0.2333075754083099, -0.6992187884173379], [-0.2778869130665659, -0.301820488974697, 0.36173453280398205, -0.040156367433403554, -0.4644196223285179, 0.29765358444981954, -0.15950859380142796, -0.5032014634687403, -0.17176195839840877, -0.16991622206923004, -0.16749682630517274, -0.01715406584319646], [-0.7239832516812554, 0.34835343458180756, 0.5703467420587374, 0.4791615603378851, 0.574957962655826, 0.16899275060284796, 0.13477997110294074, -0.2962426718519289, 0.6785603210087221, -0.4343947733006748, -0.13450875475292495, -0.6069222020955158], [0.5368245181864396, 0.3132606493755189, -0.1153187000076115, 0.48155549221768873, -0.23392884945506726, 0.09149428204966421, 0.5507899952365801, -0.31989080188373364, 0.06335250200401937, 0.521162143988425, -0.37375900531804335, 0.5687086153447407], [-0.04363680750220367, 0.5321533901736926, 0.14482271145594, 0.21107854815790703, 0.2043944029510824, -0.0293770783179082, -0.4032335214658017, 0.40017842371586076, -0.3731549763214203, 0.06480919282266279, 0.11759114707792943, -0.23795719042235117], [0.041873591861625745, 0.3371639920661558, -0.006958551290176927, -0.25652521729554845, -0.8416975387884416, -0.2805461878848386, -0.17064254305480206, -0.1490706452623763, -0.27711544618831113, 0.10893296674654498, -0.16590403063850398, -0.031603823288684135], [0.1932853016005096, -0.2872060578577265, -0.11332474592774167, 0.6040122164106827, 0.23172646425852497, -0.37889184975490997, -0.02512857310105002, 0.16020142297373796, 0.31448152967231874, 0.03191632028257352, -0.16181569949631724, -0.21529856007745027], [0.158883266223107, -0.12905975864366312, -0.1203687708795473, -0.16376307808430307, -0.214750157025733, 0.749844721788161, -0.31854285014047673, 0.12002851036313542, 0.04794117783823149, 0.0735346971632116, 0.09531268409155486, 0.3027938641760975], [-0.008413484550217247, 0.10064507769550984, -0.3060870608399174, -0.5247443462574367, 0.026281215187247308, 0.03169882934656103, 0.4494652104560028, 0.07987814639828404, -0.2149470897735012, -0.20954255062978028, -0.19114180394093006, 0.8057255539745222], [0.07757426443321012, -0.16834436116150667, 0.30066353221821684, -0.14225575008551125, -0.11378513688376873, 0.5770230297689022, -0.5964080486203116, -0.4837459026563546, -0.25509790597359255, 0.02138734581471075, 0.3454814288105491, 0.13529057269750086], [-0.22020358131455683, 0.2432268686718943, 0.19271647695685798, -0.02368088115741549, 0.2711365436094911, 0.2640658069963123, -0.3100872780668515, 0.31172764039057066, -0.31579511346009437, 0.027847059062885086, 0.09012824054685521, 0.09589416077545049], [-0.11606621227434455, 0.08592564092214575, -0.03229714699302593, 0.3384331222391329, -0.18896261794338015, -0.03574134246343237, 0.1733285314535365, -0.3686263483269619, 0.8695098042990063, 0.0007624587635438804, -0.5129286330061903, 0.5574356490928141], [-0.2955221252410227, 0.06078597627330046, 0.3163185631140442, -0.21215620100208613, -0.13625867299332545, 0.1598916694293738, -0.07320327091030142, -0.4693015841057142, -0.3922250964550777, -0.044005489267228116, 0.49879749348740826, 0.1687956055699977]], "b2": [[-0.04057045364026834], [0.09136242679388165], [0.5257248524150584], [0.3276795298499919], [-0.057509143127401234], [-0.00012771367265768078], [-0.09052735975987111], [0.013067508771817695], [0.18825348029560868], [0.022716332103208656], [0.14507077370303192], [0.3233927723338694], [0.21002836077021658]], "W3": [[0.4796540936691416, 0.19249546575373783, -0.14176899298545365, -0.03459003978243881, -0.5631298513476312, -0.26647107108199264, -0.282996746086402, 0.07487789697018911, 0.17942821194185787, -0.1556269774850201, -0.16322098195752222, -0.428944808633602, -0.035434819289712656], [0.06887347670372512, 0.06723168028519051, -0.49262201980644194, 1.0112145836523934, 0.25655782429585555, -0.02643151978565508, -0.21123533645511566, -0.05693292035789977, 0.5751678420058929, -0.13883768101921665, -0.012680860375466205, 0.3434345455351938, 0.3211832122412578], [0.3185849788155619, 0.010566774078327982, 0.09044942904692292, -0.1288532115809464, -0.18277197931921962, 0.5299546882144287, -0.1492516692247584, 0.6193088651917277, -0.05756752419055976, 0.1555304173469168, 0.32074117342221525, -0.07311603717528393, 0.1601553997275885], [-0.06694809791001878, -0.13018027069994595, 0.028929405939722024, -0.14914759071730513, 0.45543692651544915, -0.04651122393062718, 0.4801173642796469, -0.7404857331138891, 0.009338138467637477, 0.16110182988053345, -0.06427834094534363, 0.34589831622647577, 0.18907524770745796], [-0.07718687925453116, 0.12814403179671985, 1.1625029623459127, 0.012150688849114848, 0.17157846361555762, -0.12200657722251758, 0.12073669183269616, -0.39355107937967443, -0.33846449181482113, 0.7034995993253139, 0.4140540564886143, 0.357572156718524, 0.327800821394237], [0.522513216162646, 0.06879998152825391, 0.7679137176147993, 0.5737609691402382, 0.09300378459586715, 0.4769462783201688, -0.6072527250546819, -0.2839980629839228, 0.14845583161763892, -0.4690279892839289, -0.08557350227185978, 0.17789468386348395, -0.28560910849478355], [0.7494480323040086, 0.3688598733183515, 0.1314146401793019, 0.01851320958348254, -0.08127121603215944, 0.24550743424833577, 0.06021857927122361, 0.6957279094938165, -0.5882789350622011, 0.6634013285917444, 0.24869264086189202, -0.6332061807095938, 0.5579221284361463]], "b3": [[-0.0020492787135849826], [0.23769503148290108], [0.03182019112181104], [0.053673759415736634], [0.13913739158019015], [0.29231000625221404], [0.12654898171080783]], "W4": [[-0.3297240267729129, 1.210679350477454, 0.13798544589138897, 0.15612267344816277, -0.4168275654667726, 0.5398230933823991, -0.8384277739425968], [0.028242896086277433, -0.5065397060711303, 0.3918811829360982, -0.051723041919281676, 0.5857478435335021, -0.48633626478508934, 1.202959880952143], [0.8753108586108754, -0.0962990139930704, -0.12416339196821553, 0.27408913134542284, 0.9648732624153926, 0.995590345879393, -0.6912159971821134]], "b4": [[0.32456909164619785], [0.008067547705894611], [0.199016189135892]]}, {"W1": [[1.2313634629022308, 0.6091883783151255], [0.06018299366583937, -1.3568186689234587], [-0.35397748914780647, -0.5233148913089845], [0.08259994954701692, -0.6343910582060535], [0.05895672557515881, -0.544767308763027], [-1.304382545825634, 0.5658131020628476], [0.8268430249094193, 1.4204500316537505], [0.03299512830418257, -0.22645839179795882], [-0.1734003039501782, -1.3246457804022556], [0.6779375091165482, -0.6332454271526897], [-1.0243662463015029, -0.15089287418168348], [1.0902287137807292, 0.7355467202699981]], "b1": [[0.09403709532203686], [0.23188365900904911], [0.41121848269228], [0.14194607177489205], [0.2936120852484319], [0.23231853455162332], [0.0946404261772104], [-0.1148574351223666], [0.2329694844543184], [-0.2671421264747302], [0.01779827323915496], [0.27709318659124726]], "W2": [[-0.2968961209015176, -0.2058234080075322, 0.18048142667802364, -0.04633621672225135, -0.22194393690978845, -0.086455669837791, 0.19009900071342298, 0.5704540462932465, -0.3591474694389018, -0.18083098614976942, -0.2333075754083099, -0.6992187884173379], [-0.2785495190116094, -0.30387750063158975, 0.3627970980651486, -0.04121756996370746, -0.46394768768138694, 0.29841411326877093, -0.16260709011172084, -0.5032014634687403, -0.17383533877068358, -0.16991622206923004, -0.16651177574408915, -0.018722281709966915], [-0.7337984183316635, 0.36706069872702096, 0.5761781477374295, 0.4892586750317615, 0.5799227700617313, 0.16981028864182582, 0.13472426630021714, -0.29624146253596056, 0.6941340554532613, -0.43446661704255946, -0.13435730821508698, -0.6069633783893837], [0.5467239529671993, 0.31449221484785905, -0.1215966422009184, 0.4819340540655532, -0.23733765564317855, 0.08871603894894231, 0.5717379370369977, -0.31989074480615637, 0.06453219856796881, 0.5212118756425113, -0.37990983187238025, 0.5830134575874376], [-0.043460959756212926, 0.5355525119613515, 0.14722074721020623, 0.21289972378793012, 0.2067501028855118, -0.030722890513821318, -0.4028739597444564, 0.4001785908610734, -0.36986946214383226, 0.06481353707088085, 0.11697624035384961, -0.23685468232892845], [0.041873591861625745, 0.3371639920661558, -0.006958551290176927, -0.25652521729554845, -0.8416975387884416, -0.2805461878848386, -0.17064254305480206, -0.1490706452623763, -0.27711544618831113, 0.10893296674654498, -0.16590403063850398, -0.031603823288684135], [0.19346004508747086, -0.2870592394170959, -0.11317427584219215, 0.6041065411961577, 0.2318823218819246, -0.37892203747636544, -0.02507041163578886, 0.16020130386289633, 0.31459672956307216, 0.031915190662242035, -0.16183740025426602, -0.21504382794941876], [0.16196910743102372, -0.14159602567902305, -0.11752382481901842, -0.17021620185360536, -0.21331581946498512, 0.7503986194199932, -0.3305939790968236, 0.12002851036313542, 0.03647825247784622, 0.07356957570721072, 0.09859901424067996, 0.29829329785370223], [0.0006303398493141501, 0.09803736956175026, -0.3137207387798602, -0.5260969640376848, 0.02117262445763877, 0.031141365257551408, 0.4683693817314749, 0.07987814639828404, -0.21679447884474698, -0.20948385568522568, -0.19638636493016118, 0.8185217647843428], [0.07226170755636556, -0.17404096805653568, 0.3053342641328083, -0.14530289882138434, -0.11193226145330569, 0.5817765415138515, -0.6099382130090163, -0.4837459026563546, -0.2607302046154161, 0.02138734581471075, 0.35056461430552466, 0.1268332094573805], [-0.22240585564530058, 0.2432603760969194, 0.1952535171993216, -0.02353975447893763, 0.27285246070929703, 0.2644692132946818, -0.31530721977349285, 0.311727800816981, -0.31620849040745863, 0.027829861859875835, 0.09145306492485558, 0.09345312703380806], [-0.1143493311069314, 0.0954358767774412, -0.03407864889025087, 0.343330456649879, -0.18967105246147611, -0.035122122796257774, 0.18732957455405122, -0.36862607018385524, 0.8782751892294381, 0.0007634221053567227, -0.5158324907708278, 0.5654999901063819], [-0.2951255807463074, 0.055476643009018244, 0.31935466334590673, -0.2148031092902371, -0.1345247037288451, 0.16117916650022565, -0.08005798219350829, -0.4693015841057142, -0.3971743593988071, -0.04400136774724835, 0.5009606146791391, 0.1662484518000888]], "b2": [[-0.04057045364026834], [0.09204467304905238], [0.5361299622183446], [0.3292316372181343], [-0.05315519136523273], [-0.00012771367265768078], [-0.09006901667633928], [0.013925465273970088], [0.18727550885268282], [0.024586078514435627], [0.14740649662395874], [0.32734945839359697], [0.21323391128689648]], "W3": [[0.4796540936691416, 0.19249546575373783, -0.14176899298545365, -0.03459003978243881, -0.5631298513476312, -0.26647107108199264, -0.282996746086402, 0.07487789697018911, 0.17942821194185787, -0.1556269774850201, -0.16322098195752222, -0.428944808633602, -0.035434819289712656], [0.06887347670372512, 0.06228864355327441, -0.5124960411845882, 1.031474557432339, 0.25631043775342377, -0.02643151978565508, -0.211571937840855, -0.05692072764116198, 0.5951609185044782, -0.14666255642708304, -0.020308366672977265, 0.3499709565671089, 0.3172276484390397], [0.3185849788155619, 0.01137841158254387, 0.08620723212855486, -0.13169830666772944, -0.18354074950952942, 0.5299546882144287, -0.14930494834012162, 0.6196161729099593, -0.058819860578725056, 0.1575558910415079, 0.3211361130467741, -0.0769381240963213, 0.16091020721533128], [-0.06694809791001878, -0.12989819490880838, 0.03904449655221815, -0.14679772645608236, 0.4561422473968382, -0.04651122393062718, 0.48017879160979987, -0.7399259425391493, 0.009012132835246, 0.16251715857513524, -0.06151083507162182, 0.35002026282431187, 0.1909623130112787], [-0.07718687925453116, 0.12859363023529014, 1.1828290020468766, 0.010617893413681198, 0.17325094843564665, -0.12200657722251758, 0.12118443365246827, -0.39668584682426106, -0.34478263793118, 0.7008970802987086, 0.4172141702177706, 0.36538103459379623, 0.32719194029091037], [0.522513216162646, 0.06380872191076713, 0.7777483771970374, 0.5903036423766004, 0.09554411700219387, 0.4769462783201688, -0.6070200784083013, -0.28805644259698754, 0.1581987131520608, -0.4809392624312915, -0.08923260534623109, 0.1951131665030104, -0.29072641142468025], [0.7494480323040086, 0.37597333901975466, 0.13078831740722457, 0.0008164455126708176, -0.08369777268082874, 0.24550743424833577, 0.06021282490093156, 0.700384166960722, -0.6008930061625751, 0.6780012288156378, 0.25598830947008455, -0.6487679228279573, 0.5657425725131381]], "b3": [[-0.0020492787135849826], [0.23865716999266073], [0.03153865485525129], [0.059974765434953344], [0.14134440637782011], [0.29475985703842433], [0.12963683829882564]], "W4": [[-0.3297240267729129, 1.2428906594196252, 0.1320136347710093, 0.15270812838932518, -0.44550063167597354, 0.5420585896202504, -0.8515623779666713], [0.028242896086277433, -0.516721599252549, 0.3954152432383274, -0.055107698136676445, 0.5840767041080612, -0.49857465614589275, 1.2150636373184291], [0.8753108586108754, -0.09431037444339954, -0.12948636706755126, 0.28286320553515504, 0.9840255645130777, 1.019201065770316, -0.7111683024906361]], "b4": [[0.3260091088384873], [0.007579743111173446], [0.20037183715524565]]}, {"W1": [[1.2366781120113433, 0.6182259327437741], [0.06468123235189725, -1.3619567285801517], [-0.3581469803327381, -0.5281776559008395], [0.0923324930713409, -0.6452842332626987], [0.06006559505790922, -0.5465534378175244], [-1.3072658292812005, 0.5610235927605821], [0.8329215204277934, 1.438517089813559], [0.03299404932313536, -0.22645445563417027], [-0.16022345247071948, -1.3388814885204527], [0.6787455754272743, -0.6329676558392956], [-1.0282008276955221, -0.15909257043814562], [1.0973776423200396, 0.7455174226753983]], "b1": [[0.09214072953875467], [0.24763922581119474], [0.4136846510218611], [0.14561175180557082], [0.29349412738900316], [0.23690975327055333], [0.09491992017285676], [-0.11486421895288512], [0.2376349919434489], [-0.2659850739426889], [0.025945868160260305], [0.27967980589461555]], "W2": [[-0.2968961209015176, -0.2058234080075322, 0.18048142667802364, -0.04633621672225135, -0.22194393690978845, -0.086455669837791, 0.19009900071342298, 0.5704540462932465, -0.3591474694389018, -0.18083098614976942, -0.2333075754083099, -0.6992187884173379], [-0.27906071570006147, -0.3057833525364356, 0.36379443159332864, -0.042229877333003395, -0.4634291539459571, 0.298868966571789, -0.16502267836858298, -0.5032014634687403, -0.1757851603070813, -0.16991622206923004, -0.16595232403655427, -0.019693422465456384], [-0.7431936910936328, 0.3821024054482777, 0.5776032688439425, 0.4972956346592136, 0.5806432465732052, 0.17305339587949026, 0.13771262436864862, -0.2962410250556593, 0.7063579320459764, -0.43457352660324444, -0.13338957162578716, -0.6076441069721833], [0.5547179292180793, 0.3157009482235014, -0.1278198849812033, 0.4825168788333448, -0.2405067196200762, 0.08434315326944981, 0.5877840694637526, -0.31989070433798245, 0.06583320888332982, 0.5212664022462445, -0.3855139019149455, 0.5937807759596123], [-0.04330428495104622, 0.5384180468212728, 0.14905513311111046, 0.21440911205342408, 0.2086099402843164, -0.03201462342626176, -0.4025144277498332, 0.4001786562170744, -0.36719991008462344, 0.06481573964137839, 0.11642179950151177, -0.23590419246756988], [0.041873591861625745, 0.3371639920661558, -0.006958551290176927, -0.25652521729554845, -0.8416975387884416, -0.2805461878848386, -0.17064254305480206, -0.1490706452623763, -0.27711544618831113, 0.10893296674654498, -0.16590403063850398, -0.031603823288684135], [0.19357463035248182, -0.2869434223455612, -0.11305991845393962, 0.6041764235581426, 0.23199629119489393, -0.378937845474345, -0.025032140374234135, 0.16020125286799186, 0.31468966643656604, 0.03191472496473217, -0.16184903646388624, -0.2148739848767709], [0.16492276864131764, -0.152256142980283, -0.11259885774526866, -0.1757738466603842, -0.21000167645692644, 0.7505483884162186, -0.34127522806017074, 0.12002851036313542, 0.026781108047748702, 0.07360639766863651, 0.10070317223515034, 0.29584746521800676], [0.008165109419089031, 0.09671203881643445, -0.3180114933570829, -0.5266027755111676, 0.018268616176375242, 0.03228127579714034, 0.48262193597153324, 0.07987814639828404, -0.21707460082307195, -0.20942138289183043, -0.19967845029809841, 0.8286034840137695], [0.06752993789399175, -0.179653451626968, 0.30817856056969495, -0.14849220787824996, -0.11107301498750295, 0.5849104652641933, -0.6205122377582597, -0.4837459026563546, -0.2664193238528022, 0.02138734581471075, 0.35386257193761467, 0.1200685419113759], [-0.22437481598448464, 0.24308505925564292, 0.19698239260485662, -0.023600449895141425, 0.2740106179233696, 0.2645850919212093, -0.3191844938395394, 0.311727856274865, -0.3168670720582593, 0.027806465856347495, 0.09222421667792553, 0.09168174170747051], [-0.11332682000449636, 0.10349908516786478, -0.03760707644875443, 0.34756502672841993, -0.19184710629036344, -0.03490009121707245, 0.1991541467144781, -0.3686259603101523, 0.885688570861325, 0.0007586937342446879, -0.51798162983608, 0.5710455280533143], [-0.2948165497166444, 0.05083820609455523, 0.32155033007473155, -0.2172496416429938, -0.13284289077875225, 0.15986974980691476, -0.08643331834821931, -0.4693015841057142, -0.40170792131452454, -0.04399762774137078, 0.5015592659917035, 0.1642496453661985]], "b2": [[-0.04057045364026834], [0.09317638948976256], [0.5392516732565614], [0.3270148571176165], [-0.049936956917093496], [-0.00012771367265768078], [-0.08974364462693983], [0.02032431836371327], [0.1897590445687895], [0.02481285708501732], [0.14905482698213912], [0.3258038973476754], [0.21501944857676178]], "W3": [[0.4796540936691416, 0.19249546575373783, -0.14176899298545365, -0.03459003978243881, -0.5631298513476312, -0.26647107108199264, -0.282996746086402, 0.07487789697018911, 0.17942821194185787, -0.1556269774850201, -0.16322098195752222, -0.428944808633602, -0.035434819289712656], [0.06887347670372512, 0.05715740399212195, -0.5299936641496694, 1.0461889048807438, 0.256135983855584, -0.02643151978565508, -0.2117830379982939, -0.05894314921441647, 0.6098860070573037, -0.15452367841399786, -0.027226405046360376, 0.3546013357878846, 0.31234983635819663], [0.3185849788155619, 0.011751210019171971, 0.08275459831259016, -0.13403853740911587, -0.18423574711993396, 0.5299546882144287, -0.1493261428405079, 0.6191163373308625, -0.059994184544064064, 0.1586696882849933, 0.32141275634352545, -0.07976752195750417, 0.16114504889640252], [-0.06694809791001878, -0.13067190314617033, 0.04333802837913779, -0.14719755464690445, 0.4567329463231841, -0.04651122393062718, 0.4802167518732158, -0.7411951734122427, 0.0074653023284718826, 0.16182906530273, -0.06096973035234045, 0.35161214189591705, 0.1903740981275607], [-0.07718687925453116, 0.12910065987565986, 1.1961103173497853, 0.009642808563260994, 0.17445706265223082, -0.12200657722251758, 0.1214613511556243, -0.39885407246068405, -0.3488981941934205, 0.6979261843866249, 0.41832027975643515, 0.37108681107689817, 0.32599969772520726], [0.522513216162646, 0.05959627801694132, 0.7835857671820691, 0.6031259311438946, 0.09773812440778377, 0.4769462783201688, -0.6068808338912893, -0.291200187551371, 0.16603525441121977, -0.4911781817334632, -0.09336910929648545, 0.20819546165400085, -0.29572595211132036], [0.7494480323040086, 0.38174725151338035, 0.13025085686902796, -0.013515456305148573, -0.08598499471889465, 0.24550743424833577, 0.060210523048628374, 0.7035042072728922, -0.6109860400256437, 0.6895767789791833, 0.2622234523193189, -0.6611456271880555, 0.5722193723422194]], "b3": [[-0.0020492787135849826], [0.23730793519954796], [0.03147289365453688], [0.06044006792946043], [0.14021530291483786], [0.29357274878974027], [0.13343380365077126]], "W4": [[-0.3297240267729129, 1.2670958544784245, 0.12586271184524603, 0.15008146196262112, -0.4705770423245569, 0.543210990300646, -0.8643242773757885], [0.028242896086277433, -0.5245254076996675, 0.3968573501484443, -0.05823809515870563, 0.5788179681089748, -0.5092919062259263, 1.2219875998493512], [0.8753108586108754, -0.09178526099306389, -0.1344832414824231, 0.29019902640456224, 0.99404030911787, 1.0360649255188152, -0.7293932003702103]], "b4": [[0.32571075662600174], [0.006173622661484126], [0.19860605108211807]]}, {"W1": [[1.2424333272700607, 0.6246671534040641], [0.07024004003681884, -1.3671713400683954], [-0.36226012202699004, -0.530497090837594], [0.101377436970132, -0.6549654365982536], [0.05997181216118563, -0.5469317625595141], [-1.3080260657683884, 0.5558863234136979], [0.8368399669285578, 1.4555845726674153], [0.03299352135482327, -0.22645252566636886], [-0.14963813143619484, -1.351198520693764], [0.6796830210059379, -0.6327725240287833], [-1.0299550150189636, -0.1677756885296738], [1.104687083930839, 0.7516251230060783]], "b1": [[0.09131115859575155], [0.25717902583489566], [0.4143613698848172], [0.14571385696845524], [0.2918169877164691], [0.24020048315310097], [0.09445941996456894], [-0.11486755946146719], [0.24189728086051815], [-0.26433235171612623], [0.03559633719231089], [0.2813429060039022]], "W2": [[-0.2968961209015176, -0.2058234080075322, 0.18048142667802364, -0.04633621672225135, -0.22194393690978845, -0.086455669837791, 0.19009900071342298, 0.5704540462932465, -0.3591474694389018, -0.18083098614976942, -0.2333075754083099, -0.6992187884173379], [-0.27944298873220563, -0.30764066580971094, 0.36447654411624997, -0.04320839338109961, -0.46299106699375414, 0.29863866535018796, -0.16714150383947626, -0.5032014634687403, -0.17769489992133847, -0.16991622206923004, -0.16584251864289307, -0.020363342268702407], [-0.7520623286495591, 0.3950347150157582, 0.5769261528249393, 0.5041394584829989, 0.5789291702315889, 0.17940775838361098, 0.14366148433610737, -0.2962408276895287, 0.7167691016684391, -0.43470240239446195, -0.13143877581002017, -0.6082415901895915], [0.561493235601394, 0.31624740371326393, -0.1349741697507702, 0.4828024404921089, -0.2442604883228965, 0.0789575439495668, 0.6012241150676406, -0.3198906778519972, 0.06635776781754679, 0.5213252232941044, -0.3910098548885413, 0.6024302438659505], [-0.04317238703372839, 0.540792623471175, 0.1505107805443077, 0.21565657497600388, 0.2100965423739312, -0.03308060602217071, -0.40212194214721214, 0.4001786870319111, -0.36504882293779733, 0.0648171084772125, 0.11596230413327165, -0.23503110445927616], [0.041873591861625745, 0.3371639920661558, -0.006958551290176927, -0.25652521729554845, -0.8416975387884416, -0.2805461878848386, -0.17064254305480206, -0.1490706452623763, -0.27711544618831113, 0.10893296674654498, -0.16590403063850398, -0.031603823288684135], [0.19365534450299784, -0.2868533868790958, -0.11297483711586133, 0.6042294858887934, 0.23207992161401797, -0.3789479888306349, -0.025005332065739964, 0.1602012256706454, 0.31476203497850613, 0.031914618183920586, -0.1618568334088122, -0.21475309812369525], [0.16775508890760227, -0.16167977912225903, -0.10756045964111825, -0.18067502149109818, -0.20592685493617696, 0.7478495251991766, -0.3522210977276466, 0.12002851036313542, 0.01822265037638136, 0.07364624152230619, 0.10129108504636884, 0.293977859991577], [0.01464110169433274, 0.0959603778890465, -0.3214370383915728, -0.5268786358219075, 0.01598850571822825, 0.033452999307014834, 0.49423970022197683, 0.07987814639828404, -0.21697973953288766, -0.20935521589934217, -0.2022117988314906, 0.8368121831458707], [0.06344042787295469, -0.18528224607145466, 0.31003175327183147, -0.15165723825224608, -0.1105952557484808, 0.5865435354497891, -0.6293266231657402, -0.4837459026563546, -0.27201184991984095, 0.02138734581471075, 0.35589994938863206, 0.11456665961041658], [-0.22616241624691982, 0.24273734979649525, 0.19805539466200678, -0.02376158786160072, 0.2747762525573637, 0.2641398296048154, -0.3223716380772327, 0.31172788123748546, -0.3176673239620444, 0.027778986357046755, 0.09252192385000886, 0.09024781529647995], [-0.11274346371030489, 0.11043540345557033, -0.04189485650061471, 0.3512054017053102, -0.19497237652600774, -0.033424874053474087, 0.21042764141030532, -0.3686259072134385, 0.8920030044066064, 0.0007506821879335003, -0.519265603929267, 0.5754198050387583], [-0.2945049407095587, 0.04643993354060479, 0.32304505378657666, -0.2195524831383369, -0.13122726010162372, 0.15647063946105894, -0.09271596381496892, -0.4693015841057142, -0.4060681800127798, -0.04399422904368283, 0.5009754831525128, 0.16263191912816904]], "b2": [[-0.04057045364026834], [0.09390505361238001], [0.5398630615092471], [0.3210553561739267], [-0.04735511081634927], [-0.00012771367265768078], [-0.08950697355277239], [0.026690611418693656], [0.19189872737161526], [0.024242461306159584], [0.14982093632232873], [0.3222886641175295], [0.21551668509027674]], "W3": [[0.4796540936691416, 0.19249546575373783, -0.14176899298545365, -0.03459003978243881, -0.5631298513476312, -0.26647107108199264, -0.282996746086402, 0.07487789697018911, 0.17942821194185787, -0.1556269774850201, -0.16322098195752222, -0.428944808633602, -0.035434819289712656], [0.06887347670372512, 0.05206504824311371, -0.5484928111439278, 1.0570218844166577, 0.25566106531662497, -0.02643151978565508, -0.2119341312247507, -0.06224972494458541, 0.6213605312204433, -0.1626624399716356, -0.034270974306252144, 0.3571262290903753, 0.3065574494468731], [0.3185849788155619, 0.011764094061904031, 0.0794588762895862, -0.13631040582216755, -0.1848978304842834, 0.5299546882144287, -0.149335456260233, 0.6179814644731796, -0.06129108335378064, 0.15909331951958516, 0.32148857674925185, -0.08214980553678353, 0.1608878655346421], [-0.06694809791001878, -0.13134869570857324, 0.04721635939224299, -0.14783144523332317, 0.4572721151956911, -0.04651122393062718, 0.4802437927467623, -0.7423665675507948, 0.005894985663326195, 0.16125324345480657, -0.060475386030516186, 0.3528965177053072, 0.18984061953115686], [-0.07718687925453116, 0.1296753260985403, 1.2050297200733968, 0.009645621150866347, 0.17529295684708227, -0.12200657722251758, 0.1216578175590456, -0.4002352553137221, -0.3511015356557247, 0.694789108286323, 0.41813809606062297, 0.3757670786538574, 0.3245780157753714], [0.522513216162646, 0.056209110941823515, 0.7875155997417909, 0.6144382168136574, 0.09968326260644543, 0.4769462783201688, -0.6067843363658675, -0.2931415057284684, 0.17335854200712814, -0.49989274124094735, -0.09750144732058207, 0.21903760500242317, -0.3000578600874729], [0.7494480323040086, 0.3863286212522927, 0.12916244246896397, -0.02616337755211743, -0.08819083012188526, 0.24550743424833577, 0.060209824907965545, 0.7051434338768237, -0.6198876849453112, 0.6987660676207103, 0.26745595579686865, -0.6716658912621376, 0.5772776905734844]], "b3": [[-0.0020492787135849826], [0.23315747339237358], [0.031160622643799537], [0.0606802407568756], [0.13741571934791935], [0.29111210034113494], [0.1368749182548554]], "W4": [[-0.3297240267729129, 1.2862250567515678, 0.11973738719599758, 0.14783346216996976, -0.4932191866800047, 0.543595085911534, -0.876637266425572], [0.028242896086277433, -0.5318128448065995, 0.3966234717729817, -0.06113798178593392, 0.5704030355977304, -0.5195974992190912, 1.2250366510631048], [0.8753108586108754, -0.08757334966932628, -0.13900908436413406, 0.29660739699989785, 0.9989051779642018, 1.049299567745254, -0.7461678687487318]], "b4": [[0.32436532179112415], [0.0035183228076746177], [0.19552320676230672]]}, {"W1": [[1.248087840054683, 0.6293419397540568], [0.07564401134180206, -1.3721154774323945], [-0.3658114577248169, -0.5309380379995124], [0.10965230438136922, -0.6639116309970753], [0.05989507862348586, -0.5459875248080934], [-1.307421139271695, 0.5508685111102546], [0.8389932614548443, 1.4713346250012393], [0.03299321733475136, -0.22645142886723119], [-0.14108198597759597, -1.3622987313817898], [0.6806545008415454, -0.6326257070329051], [-1.0295194906616412, -0.1754533935320558], [1.1103261651492038, 0.7545107956486135]], "b1": [[0.08955164368245755], [0.26623257944613576], [0.4139879951680285], [0.14546854420270913], [0.2885291991516414], [0.24172714841332674], [0.093818169913005], [-0.11486946736312341], [0.24647795744703613], [-0.2624817819639923], [0.04493762188260933], [0.2841474305543933]], "W2": [[-0.2968961209015176, -0.2058234080075322, 0.18048142667802364, -0.04633621672225135, -0.22194393690978845, -0.086455669837791, 0.19009900071342298, 0.5704540462932465, -0.3591474694389018, -0.18083098614976942, -0.2333075754083099, -0.6992187884173379], [-0.2796024011018045, -0.3094390528922068, 0.3652006204145117, -0.04415167829435879, -0.46256165314935965, 0.298675493880875, -0.16847071702115607, -0.5032014634687403, -0.17955175256276734, -0.16991622206923004, -0.16586759836935783, -0.020417993191964228], [-0.7600907214072965, 0.40638515762779237, 0.5746096191256106, 0.510195983466535, 0.5756431367252771, 0.18675209911265683, 0.15183313408829194, -0.2962407228361641, 0.72572746724046, -0.4348423525457327, -0.12932253627370158, -0.6082366774195423], [0.5671908625155047, 0.3172100773372077, -0.1397424094826332, 0.48332419797771325, -0.24688199468302247, 0.07678509507998048, 0.6120886638685175, -0.319890660509786, 0.06759204292268697, 0.521385743636392, -0.3943548744817545, 0.6091474484908541], [-0.04306150835767624, 0.543045207538051, 0.1524384578469908, 0.2168363698403358, 0.21169092435237055, -0.033026324707457116, -0.4017165889495556, 0.40017870369189773, -0.3629525881298522, 0.06481810804833825, 0.11604184103867257, -0.23414918019886805], [0.041873591861625745, 0.3371639920661558, -0.006958551290176927, -0.25652521729554845, -0.8416975387884416, -0.2805461878848386, -0.17064254305480206, -0.1490706452623763, -0.27711544618831113, 0.10893296674654498, -0.16590403063850398, -0.031603823288684135], [0.19372042381438012, -0.2867719506946182, -0.11289962826687212, 0.6042763253767994, 0.23215178922280394, -0.3789540055856291, -0.0249837652018167, 0.160201209329546, 0.31482854505694313, 0.031914716693958366, -0.16186189888422095, -0.21465426255416667], [0.17066867678674913, -0.1704096920518359, -0.10300883519042396, -0.18524814451846616, -0.20186873977609446, 0.7436898681180238, -0.36199306119311736, 0.12002851036313542, 0.01018135275566921, 0.07368789260589911, 0.10065408697496518, 0.29322659716427213], [0.019919203217955175, 0.09564457093529641, -0.32436828351524927, -0.5270080851589701, 0.014182063885912137, 0.03398483714968855, 0.5026141427035343, 0.07987814639828404, -0.2164980754549528, -0.20928718686593448, -0.20412655594445303, 0.8425594545156629], [0.05860379512510996, -0.19091796348506612, 0.31045726031940757, -0.15477939200429847, -0.11064124110483478, 0.5854651273682547, -0.6387962172462389, -0.4837459026563546, -0.2776538586343972, 0.02138734581471075, 0.3569188753536118, 0.10839488200344383], [-0.22764469081530497, 0.24225548657840668, 0.19877997686184223, -0.02398832664313578, 0.27527011187383915, 0.2637212288933538, -0.3245151075386629, 0.31172789480390595, -0.31860379504336184, 0.027749542015552596, 0.09253969092636961, 0.08948649102065943], [-0.11271725836061176, 0.11700918216448424, -0.045280699475342724, 0.35467873698399577, -0.19787987696631051, -0.03001001724718987, 0.21997623770945257, -0.36862587760635634, 0.8981666755465973, 0.0007406176043859361, -0.5190021872848422, 0.5782005421041817], [-0.29396277977876145, 0.04239169198175765, 0.3249158159203453, -0.2216745461181584, -0.12939603632723054, 0.15360308184121724, -0.09786105867484282, -0.4693015841057142, -0.4100817232049782, -0.043991173767078395, 0.5002133144538646, 0.1620258964707747]], "b2": [[-0.04057045364026834], [0.09535385715429526], [0.538601215565619], [0.31816485882036377], [-0.04366897098855939], [-0.00012771367265768078], [-0.0893039012861258], [0.032881836944841154], [0.19238762239119192], [0.0199494260401571], [0.15065160812023914], [0.31933142444320883], [0.21774959616937536]], "W3": [[0.4796540936691416, 0.19249546575373783, -0.14176899298545365, -0.03459003978243881, -0.5631298513476312, -0.26647107108199264, -0.282996746086402, 0.07487789697018911, 0.17942821194185787, -0.1556269774850201, -0.16322098195752222, -0.428944808633602, -0.035434819289712656], [0.06887347670372512, 0.04820365821278137, -0.5609444000140713, 1.065689440591926, 0.25558859669528483, -0.02643151978565508, -0.2120509183797036, -0.06405843418416404, 0.6299147672689196, -0.16785579194859732, -0.03869552710779517, 0.35929755144076986, 0.30296123385036045], [0.3185849788155619, 0.011508952362642867, 0.07580366928944737, -0.1387971756985077, -0.18555136838228614, 0.5299546882144287, -0.14934152476206775, 0.6163791516132173, -0.06277860304963381, 0.15894129803390167, 0.32127418523476936, -0.08448891677555821, 0.16017091513999698], [-0.06694809791001878, -0.1319711624174065, 0.05076933175112999, -0.14857431550506622, 0.4577603603825304, -0.04651122393062718, 0.48026474841748407, -0.7435094713708869, 0.004348869575763053, 0.16071616179396375, -0.06003503221954517, 0.3540148852041254, 0.1893185643726033], [-0.07718687925453116, 0.13055478675837037, 1.2124340399132219, 0.011111791417644415, 0.17588169696456019, -0.12200657722251758, 0.12180892068321053, -0.400819353246935, -0.3516802751485726, 0.692184430147885, 0.4176159210344494, 0.3804424448288033, 0.32352973030904475], [0.522513216162646, 0.05349241300853412, 0.7913205210087124, 0.6243207982112996, 0.10148609702751561, 0.4769462783201688, -0.6067114224805195, -0.29429818422775866, 0.17968811037093782, -0.5070813185958595, -0.10119717956677866, 0.22836841052906376, -0.30371507067011455], [0.7494480323040086, 0.39035537689000227, 0.12761614307847086, -0.03518653495340938, -0.09037324561094152, 0.24550743424833577, 0.06020946138875458, 0.7066723526364924, -0.6257737121603995, 0.706325872761734, 0.27201008774782925, -0.679715263941453, 0.5819826687772915]], "b3": [[-0.0020492787135849826], [0.23203913806870374], [0.030174134183795796], [0.060769087827882394], [0.13498276376456775], [0.28839646944160824], [0.14154015463749953]], "W4": [[-0.3297240267729129, 1.3009354653451142, 0.11345564380732095, 0.14573618078188086, -0.5154636885103674, 0.5423299350091949, -0.8888248491514766], [0.028242896086277433, -0.5378564325868576, 0.3952121458174637, -0.06387622735803371, 0.5591567601492777, -0.5295895626388043, 1.2251059413425684], [0.8753108586108754, -0.0824137044864889, -0.14276021143926113, 0.30250331747162695, 1.0027570095222667, 1.0610484497900794, -0.760872539762587]], "b4": [[0.32143608178589095], [-5.445524880281983e-05], [0.1925216655998444]]}, {"W1": [[1.253823679013272, 0.6332068116581772], [0.08086603008865514, -1.3770147819528897], [-0.3691700059793069, -0.5293643377771214], [0.11728525516197942, -0.6724850246186354], [0.0600597889861778, -0.5441660363167988], [-1.3063816671493185, 0.5476125692330048], [0.8391141901736762, 1.4850809128723261], [0.03299303745592115, -0.2264507813923979], [-0.13432937023043348, -1.3727844902697217], [0.6816894969945915, -0.6325023797662099], [-1.0283140926579362, -0.18224740634135767], [1.1152626494273599, 0.7556798864926809]], "b1": [[0.0873153643538264], [0.27408499203779313], [0.41558462719591216], [0.14474083087721307], [0.28322485164102057], [0.24729466813341966], [0.09242485082397146], [-0.11487059646408349], [0.24918107210930085], [-0.26042789177408476], [0.0542052632954366], [0.2879213466919138]], "W2": [[-0.2968961209015176, -0.2058234080075322, 0.18048142667802364, -0.04633621672225135, -0.22194393690978845, -0.086455669837791, 0.19009900071342298, 0.5704540462932465, -0.3591474694389018, -0.18083098614976942, -0.2333075754083099, -0.6992187884173379], [-0.27967584436098236, -0.3111581719656046, 0.3660181274048993, -0.04504393991996247, -0.4621634902330435, 0.2991983789784888, -0.16925877857883614, -0.5032014634687403, -0.18132059579011972, -0.16991622206923004, -0.1658002283528738, -0.020141269320141146], [-0.7677547689664727, 0.4166294708049597, 0.5710387058852032, 0.5157989184764147, 0.5712552490139187, 0.1943941753902539, 0.16156972607250839, -0.29624066313535413, 0.7336290687307124, -0.4350006812718926, -0.1272524781761662, -0.6077986163532816], [0.5722750695966587, 0.31861663909059057, -0.1425329771532629, 0.4840218022706874, -0.24848528954583063, 0.0771484718285716, 0.6214833763137254, -0.31989064971679465, 0.06946557267736526, 0.521451132637587, -0.3961838335117809, 0.6148323827156009], [-0.042962300540258555, 0.5452308107910795, 0.1542117616149686, 0.21796639810402257, 0.21317865816206027, -0.03311711525783894, -0.4014501784788809, 0.4001787133408016, -0.3608924564288113, 0.06481892064333966, 0.11609852627747595, -0.23334725005474344], [0.041873591861625745, 0.3371639920661558, -0.006958551290176927, -0.25652521729554845, -0.8416975387884416, -0.2805461878848386, -0.17064254305480206, -0.1490706452623763, -0.27711544618831113, 0.10893296674654498, -0.16590403063850398, -0.031603823288684135], [0.19377753474360335, -0.2866917306937367, -0.11282731019846946, 0.6043213184439692, 0.23221885120447497, -0.378957735045906, -0.024965333889826694, 0.16020119973451766, 0.3148948394514209, 0.03191503243860235, -0.16186537689276095, -0.21456528841481137], [0.1737715881736893, -0.17859670531882704, -0.09870263974693808, -0.18956399034530527, -0.19792735704190884, 0.7392405074955656, -0.37081763863131034, 0.12002851036313542, 0.00260699407569261, 0.07373407417730089, 0.0995824851872632, 0.29319972903135155], [0.02461685902980658, 0.09542520632766624, -0.32734903829888073, -0.5271962904859873, 0.012593346074589546, 0.03335818214660619, 0.5090036433797253, 0.07987814639828404, -0.21598575346498164, -0.20921323385805587, -0.20610331195866768, 0.8469066766852372], [0.055669571967155426, -0.1961194014790963, 0.3121801859866468, -0.15748886636329704, -0.10988558050392969, 0.5859268396450904, -0.6445324818217479, -0.4837459026563546, -0.28306770752596544, 0.02138734581471075, 0.3577423964396205, 0.10588396428365975], [-0.22895208075114387, 0.24173660514688328, 0.1994042359608893, -0.02421049423988215, 0.2755921998111424, 0.2636888426349094, -0.3258774537921593, 0.3117279024128383, -0.3195674991791782, 0.027716621667055897, 0.09256648409377276, 0.08917946544611347], [-0.11309427446781063, 0.12335272985054262, -0.04819331600325822, 0.35802986309069806, -0.20055346032142712, -0.02605484619618453, 0.22836863561256135, -0.3686258602065784, 0.9041888848772949, 0.0007279703025139978, -0.5181708530201194, 0.580042579956952], [-0.2933252861124496, 0.038729130596540026, 0.3274046289696182, -0.22360442651963414, -0.12734308514302517, 0.15194866595749282, -0.10218520585916495, -0.4693015841057142, -0.41368054761663425, -0.043988098057562666, 0.4997937220181374, 0.1620396021605967]], "b2": [[-0.04057045364026834], [0.09738243974849056], [0.5358250546517541], [0.3183288542832943], [-0.04035184462795034], [-0.00012771367265768078], [-0.089113905112999], [0.03916341856069651], [0.1911399671091341], [0.021505130463312847], [0.1518345393960132], [0.31655435535951304], [0.22188222122969817]], "W3": [[0.4796540936691416, 0.19249546575373783, -0.14176899298545365, -0.03459003978243881, -0.5631298513476312, -0.26647107108199264, -0.282996746086402, 0.07487789697018911, 0.17942821194185787, -0.1556269774850201, -0.16322098195752222, -0.428944808633602, -0.035434819289712656], [0.06887347670372512, 0.04525762268155746, -0.5682271471094493, 1.0734669093637081, 0.25597232510623147, -0.02643151978565508, -0.2121462012576372, -0.06440260667247416, 0.6368552466764216, -0.17072283573194855, -0.04094364629453228, 0.361712229309279, 0.3013275678468585], [0.3185849788155619, 0.011131270001688813, 0.07213216139336577, -0.14101874480698054, -0.18619451450301017, 0.5299546882144287, -0.14934540253379514, 0.6147090624280753, -0.06410737447951248, 0.15854887393188355, 0.320965532616548, -0.08658195949674312, 0.15933017094106594], [-0.06694809791001878, -0.1324845833646298, 0.05435576438347434, -0.14914370506972327, 0.45818771786186197, -0.04651122393062718, 0.48028161233776206, -0.7445172535441776, 0.003016870320188508, 0.16030086643638805, -0.05951522106428977, 0.35519606781451313, 0.18896678937503916], [-0.07718687925453116, 0.1317683268017601, 1.2194162102634922, 0.013107808127878135, 0.17627079267881396, -0.12200657722251758, 0.12193120580489118, -0.4009552245306103, -0.3515953157889403, 0.6900731164016676, 0.41702695038452753, 0.3850288602175192, 0.3228294561424105], [0.522513216162646, 0.05113254696541974, 0.7948302791720449, 0.6334132149056321, 0.10315467536668817, 0.4769462783201688, -0.6066541171294788, -0.29524189317479815, 0.18557763991241977, -0.5135963822429471, -0.10476111354936289, 0.2368461017703882, -0.30713586280107197], [0.7494480323040086, 0.3942666627543761, 0.12641393390910588, -0.041784566352634896, -0.09251254388338431, 0.24550743424833577, 0.060209298697350526, 0.7087207652015562, -0.6297983812911517, 0.7133807323900623, 0.2764105557374532, -0.6861730360440631, 0.586907868965057]], "b3": [[-0.0020492787135849826], [0.23409345278937757], [0.029163264857622245], [0.061134852866939676], [0.13281227552388059], [0.28539896556572014], [0.14737983862975365]], "W4": [[-0.3297240267729129, 1.313102261381486, 0.10702599507793624, 0.14362570910202516, -0.5380032864210043, 0.5399249674047808, -0.9010898744957024], [0.028242896086277433, -0.5430549386068627, 0.39339146598048597, -0.0664548400430863, 0.5467856505773167, -0.539309952037929, 1.2239057915508413], [0.8753108586108754, -0.07672980744071334, -0.14616200738382576, 0.30808594784264737, 1.0060377176424844, 1.0721227980587513, -0.7747206119359076]], "b4": [[0.3174475401296854], [-0.003976331095379949], [0.18959869964796808]]}, {"W1": [[1.2593558180263225, 0.6367098900862095], [0.08635390329500246, -1.3822836941461534], [-0.37198248855658395, -0.5275203536154641], [0.12418633218228665, -0.6808230297182984], [0.05958335314259947, -0.5412722262411322], [-1.3043743923483095, 0.5449745534963069], [0.8378405977770844, 1.497862691711441], [0.03299292485023928, -0.22645038122965286], [-0.12867872213329326, -1.3828488528208658], [0.6826777198106583, -0.632392886983299], [-1.0263808922007205, -0.18848566827620628], [1.1196079727209982, 0.7563965781249942]], "b1": [[0.0867878885487208], [0.27976687330508154], [0.41533229074670514], [0.14431497251054876], [0.27917445284932885], [0.25139488247036773], [0.09091089132912451], [-0.11487129732531559], [0.2523994599172276], [-0.2584472952480655], [0.06256303281307797], [0.29337719879434726]], "W2": [[-0.2968961209015176, -0.2058234080075322, 0.18048142667802364, -0.04633621672225135, -0.22194393690978845, -0.086455669837791, 0.19009900071342298, 0.5704540462932465, -0.3591474694389018, -0.18083098614976942, -0.2333075754083099, -0.6992187884173379], [-0.27978749968420913, -0.31290159858148553, 0.3665085960231651, -0.04593110320685299, -0.4619374135374551, 0.29932389333312387, -0.16995098395684355, -0.5032014634687403, -0.18311405713124268, -0.16991622206923004, -0.16594431964295697, -0.019822268774332782], [-0.7752897237895895, 0.42618807002466486, 0.5666983107002687, 0.5211381120721241, 0.5663096777892371, 0.20175082215618234, 0.17089060315954147, -0.296240627026297, 0.7411049279871412, -0.43516196868481627, -0.12506519467366622, -0.608279373052818], [0.5768326179409734, 0.3203054294185546, -0.14446996536262327, 0.48481404343042717, -0.24964238711746528, 0.07842558191827569, 0.6296951537231662, -0.3198906432892884, 0.07159827165638998, 0.5215158341336883, -0.39725426997115937, 0.6195753796115591], [-0.042860244116113215, 0.5474539994317938, 0.15598423727681782, 0.21909734381323712, 0.21467439316498754, -0.03329764391891173, -0.40123656249125117, 0.4001787191297469, -0.35878461914310317, 0.06481965242825714, 0.1161302174062448, -0.23249588651011624], [0.041873591861625745, 0.3371639920661558, -0.006958551290176927, -0.25652521729554845, -0.8416975387884416, -0.2805461878848386, -0.17064254305480206, -0.1490706452623763, -0.27711544618831113, 0.10893296674654498, -0.16590403063850398, -0.031603823288684135], [0.19382997104054936, -0.28661098481271186, -0.1127559189507673, 0.60436567472747, 0.23228314677707304, -0.3789594780077115, -0.024948784007867285, 0.16020119406813205, 0.3149620963873949, 0.031915534154017856, -0.16186720941490104, -0.21448202085504148], [0.17694964688296141, -0.1865968328374587, -0.09516416106478855, -0.1937757337831665, -0.19441883898354742, 0.7340450793628729, -0.3785073020574085, 0.12002851036313542, -0.004881446535720924, 0.07378128747847992, 0.0977730061059668, 0.294075930824626], [0.028967632492396016, 0.09537295445816284, -0.32985484132070003, -0.5273783912178045, 0.011328046120954605, 0.0329376753798989, 0.5144617809373192, 0.07987814639828404, -0.21542868692644124, -0.20913940726163033, -0.20776145086391024, 0.8505881645259378], [0.053199583306687136, -0.20132613703987673, 0.31326458926617956, -0.16011404270232146, -0.10937749556026505, 0.5853874897123301, -0.649162829542009, -0.4837459026563546, -0.28851463228714475, 0.02138734581471075, 0.35779462449519395, 0.10441291992895141], [-0.23008317023782984, 0.241087977674929, 0.19960250698472695, -0.02447175935960334, 0.2756491271753439, 0.26335984010155666, -0.326753086353245, 0.3117279070117779, -0.32062585611649225, 0.02768343185028578, 0.09231291615718529, 0.08916968144067748], [-0.11360779901027022, 0.12965673265837116, -0.0512870371142475, 0.36133921988539336, -0.20315148569666783, -0.02297433815705476, 0.23596347358132808, -0.3686258495912006, 0.9101318022568617, 0.0007140654600757767, -0.5176160571259707, 0.5811555808417255], [-0.29260728679522885, 0.03512175536863545, 0.32949587116154594, -0.22549654086355023, -0.12551048642345022, 0.14988843099788132, -0.10585517998541683, -0.4693015841057142, -0.41725661182283913, -0.0439851731514355, 0.4989649867744976, 0.16260944157601268]], "b2": [[-0.04057045364026834], [0.09877362953232895], [0.5308567044290695], [0.31930008318117464], [-0.037034990925221695], [-0.00012771367265768078], [-0.08893067122915245], [0.04473869266760284], [0.1901259614488819], [0.022608697253816156], [0.1524757351119263], [0.31284266836429375], [0.22570176289587632]], "W3": [[0.4796540936691416, 0.19249546575373783, -0.14176899298545365, -0.03459003978243881, -0.5631298513476312, -0.26647107108199264, -0.282996746086402, 0.07487789697018911, 0.17942821194185787, -0.1556269774850201, -0.16322098195752222, -0.428944808633602, -0.035434819289712656], [0.06887347670372512, 0.042657711234456566, -0.5736423558710347, 1.080736589310032, 0.256490797069478, -0.02643151978565508, -0.21222763516906834, -0.06431269902777206, 0.6431141152866597, -0.1728519394525288, -0.04239262703178592, 0.36414618401839033, 0.30039944123998313], [0.3185849788155619, 0.010740341366928884, 0.068487102166075, -0.14152353309080448, -0.1868622667518877, 0.5299546882144287, -0.14934622389416294, 0.613373946773669, -0.0640648758736929, 0.15790503956248506, 0.3205792158568923, -0.08765694383807635, 0.15865257921466558], [-0.06694809791001878, -0.13286074730689532, 0.05835586323794777, -0.14883116890992498, 0.45860754834151224, -0.04651122393062718, 0.48029580477400585, -0.7451993903782714, 0.002398947585927507, 0.16005175404656627, -0.05878356958996328, 0.3568954589567383, 0.1889881037502391], [-0.07718687925453116, 0.1328620060815739, 1.2252907895338983, 0.014435052779056014, 0.1765743513018803, -0.12200657722251758, 0.12203486304605969, -0.40136475513932035, -0.3519011163362724, 0.6878968574273611, 0.4160100826061024, 0.38890104503102646, 0.32168707833773397], [0.522513216162646, 0.04909545817344318, 0.7990713116306388, 0.6413575012689133, 0.10485445901099504, 0.4769462783201688, -0.606606986553136, -0.2959353246156172, 0.19044352509455006, -0.5191599154046548, -0.1078684821291623, 0.24448763488388237, -0.31018471832646133], [0.7494480323040086, 0.3976828242479246, 0.12349112290383144, -0.04742725553744047, -0.09475878748659576, 0.24550743424833577, 0.0602092320573708, 0.7102721201133351, -0.6328111851563437, 0.7191277883355006, 0.27991643240293035, -0.6920702545834232, 0.5910412573085411]], "b3": [[-0.0020492787135849826], [0.23713054503052536], [0.029093149497965272], [0.06247683861610482], [0.1295186634629707], [0.2824737609812423], [0.1522053110797266]], "W4": [[-0.3297240267729129, 1.3242790083435378, 0.10103655848156513, 0.14160485438875361, -0.5588280176660966, 0.5378140650954721, -0.9126687067724414], [0.028242896086277433, -0.5472483097587504, 0.3908986446564453, -0.06900807054448785, 0.532261923136531, -0.5490771383305699, 1.2208279606393768], [0.8753108586108754, -0.07240166824267234, -0.14935597056312858, 0.3134237403122414, 1.0088998318213307, 1.0819420998302245, -0.787541234208213]], "b4": [[0.31384472673761055], [-0.008588012425907591], [0.18615087836320354]]}, {"W1": [[1.2645453995348925, 0.6398866155197998], [0.09216394815551854, -1.3877883812406675], [-0.37435498340040413, -0.5253739429275746], [0.1309132630340567, -0.6885769964611166], [0.05915631903339522, -0.5375713333311357], [-1.3024823980420908, 0.5427631996296214], [0.8342874410952633, 1.5107745829058892], [0.032992852297400115, -0.2264501290516419], [-0.12316972629530452, -1.3923136316790048], [0.6837079040680909, -0.6323023258421455], [-1.0244891538587604, -0.1939167581735747], [1.1232690939114354, 0.7564578370011639]], "b1": [[0.08524775409098007], [0.2836238661988906], [0.4155814839938446], [0.14478128148232075], [0.2766985635314149], [0.2566437929801146], [0.08930740083397402], [-0.11487174131596965], [0.2553506473897448], [-0.2563214170790656], [0.07342253021991645], [0.2977262709824795]], "W2": [[-0.2968961209015176, -0.2058234080075322, 0.18048142667802364, -0.04633621672225135, -0.22194393690978845, -0.086455669837791, 0.19009900071342298, 0.5704540462932465, -0.3591474694389018, -0.18083098614976942, -0.2333075754083099, -0.6992187884173379], [-0.2799116519207815, -0.31457234165354175, 0.36706516747849816, -0.04677431858254104, -0.46168229135723854, 0.29956806037817363, -0.17049067908325352, -0.5032014634687403, -0.18483149089855785, -0.16991622206923004, -0.16605192952467762, -0.019381021831641927], [-0.7822228133497479, 0.4351998438207421, 0.5617801908172826, 0.526327869338297, 0.5611207430748696, 0.2081715766082873, 0.18058226622392035, -0.29624060467637087, 0.7480841418834576, -0.43533938577724796, -0.12324291160359742, -0.6085413401159117], [0.5809306615921801, 0.3219693462940682, -0.14666372190875088, 0.4855511617991638, -0.2509665486279946, 0.07943972677940334, 0.6369749647620537, -0.3198906394941319, 0.0737097225005626, 0.5215847329162298, -0.3982871408415032, 0.623372668492535], [-0.04275194554002902, 0.5498216554605068, 0.15852843398917338, 0.22028176749331538, 0.21653655037343356, -0.03244720243994034, -0.40071808149908344, 0.40017872265956705, -0.3565333738381589, 0.06482030732544716, 0.11655668927310972, -0.2311518065808273], [0.041873591861625745, 0.3371639920661558, -0.006958551290176927, -0.25652521729554845, -0.8416975387884416, -0.2805461878848386, -0.17064254305480206, -0.1490706452623763, -0.27711544618831113, 0.10893296674654498, -0.16590403063850398, -0.031603823288684135], [0.19387493684713566, -0.28653894110099165, -0.11269321805888063, 0.6044049339871456, 0.23233897569056816, -0.37896078133472605, -0.02493503901054102, 0.16020119070769587, 0.3150223104951633, 0.031916119760085994, -0.16186861759647989, -0.21440933877884805], [0.17993236563134593, -0.1941560180124847, -0.09120239445101161, -0.197796092578505, -0.1907626124096167, 0.7297245372494934, -0.385665097806547, 0.12002851036313542, -0.011933248319008717, 0.07383274080598566, 0.09622961394317181, 0.2953603990634047], [0.032934569803458213, 0.09555330654303505, -0.3319749420951014, -0.5275388013321876, 0.010256454783832821, 0.03289421492428124, 0.5190221012649022, 0.07987814639828404, -0.21463181313458277, -0.20906001419668574, -0.20908240665784167, 0.8535265421501093], [0.05070718923067677, -0.20633795368020463, 0.3144481845701268, -0.16260748586291324, -0.10880116110344763, 0.5849806017317484, -0.6533991718938418, -0.4837459026563546, -0.2937451020291115, 0.02138734581471075, 0.3578716084644461, 0.10325660854535709], [-0.23109210555749113, 0.2404662462044956, 0.19986665203088955, -0.024696270121315672, 0.27574643972001794, 0.2631139686449231, -0.32731228876278934, 0.31172790986334786, -0.3216472352294871, 0.027647324614381935, 0.09205672761021937, 0.08944435502551595], [-0.11417119075791295, 0.13565364870222188, -0.0547951202257212, 0.3645029424866984, -0.205962672953064, -0.020474285189030772, 0.2429885270556299, -0.36862584301064555, 0.9157714920860155, 0.0006976992445429449, -0.517208522533351, 0.5816695009074692], [-0.29192314717576107, 0.03174654572195826, 0.3318148006833418, -0.22727693718401304, -0.12357828419395615, 0.14821537723556721, -0.10915705987732253, -0.4693015841057142, -0.4206062212273753, -0.04398213581131263, 0.49824760659732215, 0.1635129959089212]], "b2": [[-0.04057045364026834], [0.100392202239062], [0.5249130342007886], [0.3189361270999625], [-0.031745064906508684], [-0.00012771367265768078], [-0.0887706891952019], [0.0515434502851783], [0.1891674072151421], [0.024147434597209264], [0.15348152147164548], [0.3078261952583012], [0.23025156321883358]], "W3": [[0.4796540936691416, 0.19249546575373783, -0.14176899298545365, -0.03459003978243881, -0.5631298513476312, -0.26647107108199264, -0.282996746086402, 0.07487789697018911, 0.17942821194185787, -0.1556269774850201, -0.16322098195752222, -0.428944808633602, -0.035434819289712656], [0.06887347670372512, 0.04019596623429605, -0.5786081980191387, 1.0868910283302946, 0.25714533403659284, -0.02643151978565508, -0.212294868417838, -0.0641169608248016, 0.648411905526385, -0.17471338731337857, -0.04363663874120752, 0.366048240422322, 0.29953596097523005], [0.3185849788155619, 0.01038937708535058, 0.06516036428823609, -0.14174432259169287, -0.1875227807519703, 0.5299546882144287, -0.14934662486060615, 0.612204085421799, -0.06383387722219988, 0.15730677798996992, 0.32028588420626364, -0.08848572950263311, 0.1581112656361061], [-0.06694809791001878, -0.133243627892076, 0.062077903240201196, -0.1483763751534255, 0.45899048052748137, -0.04651122393062718, 0.4803075110091943, -0.7458904763357717, 0.0019560227638991392, 0.15973062930946022, -0.05812782081955221, 0.358608469151796, 0.18898559695248418], [-0.07718687925453116, 0.13375099468579327, 1.2303308697008606, 0.015982574254958266, 0.17671064386659727, -0.12200657722251758, 0.12212024998020847, -0.4022071162278747, -0.3519310158034056, 0.6853750268622927, 0.41461553474531315, 0.39271329637268765, 0.320165940134173], [0.522513216162646, 0.04696354267362738, 0.8022770105079802, 0.6484327980652131, 0.1064406416077547, 0.4769462783201688, -0.6065688847073866, -0.29710797476973044, 0.19475803151956508, -0.524865977448641, -0.11131398867005225, 0.25135604720145655, -0.3137059333917889], [0.7494480323040086, 0.4011236814258084, 0.1214328806558848, -0.05196520773293073, -0.09696041455344455, 0.24550743424833577, 0.060209193727337726, 0.7122237161475755, -0.635054290740588, 0.7248804759613193, 0.2836373508328002, -0.6970998470266833, 0.5955668783336324]], "b3": [[-0.0020492787135849826], [0.239692766934094], [0.029322323553045208], [0.0637937571160485], [0.1258272697140039], [0.27847315197189076], [0.1580207700595684]], "W4": [[-0.3297240267729129, 1.3339750151047858, 0.0953156861272035, 0.13959628194063325, -0.5791675389795379, 0.5350873976957352, -0.924049509294115], [0.028242896086277433, -0.5506298577882589, 0.38835967124663556, -0.07149973337696884, 0.517842766485594, -0.5581593928750574, 1.2172282215465462], [0.8753108586108754, -0.06810099556946803, -0.1530226525360962, 0.3185393150081968, 1.0098334747309439, 1.0909738953154928, -0.8008590382727291]], "b4": [[0.3099035305557174], [-0.012973326723713466], [0.18197470235875807]]}, {"W1": [[1.2694652881142192, 0.6428038411544295], [0.09807436820311691, -1.3933368659759413], [-0.37637816921964096, -0.5230129006086923], [0.13672460164627534, -0.6956044957996766], [0.05856470190544904, -0.5334459361279922], [-1.3002579730580532, 0.5405432070388435], [0.829181915261539, 1.5241480726567511], [0.03299280421022955, -0.226449965208058], [-0.11826051296127055, -1.4011762220710493], [0.6847403547003428, -0.6322218613929995], [-1.0219628159332386, -0.19959282863403713], [1.1264806338608886, 0.756038007510533]], "b1": [[0.08393421283506862], [0.2860806057931524], [0.41504964510174935], [0.14766282090113955], [0.27472463288084137], [0.26068967488543277], [0.0881504041838886], [-0.11487203090080765], [0.2590521919611312], [-0.25416449145402115], [0.08198134470807054], [0.3028558460879284]], "W2": [[-0.2968961209015176, -0.2058234080075322, 0.18048142667802364, -0.04633621672225135, -0.22194393690978845, -0.086455669837791, 0.19009900071342298, 0.5704540462932465, -0.3591474694389018, -0.18083098614976942, -0.2333075754083099, -0.6992187884173379], [-0.2800545681978342, -0.3161789630685826, 0.36746668946722283, -0.04758672895972148, -0.4614933870449165, 0.2996256287239221, -0.17100886867277382, -0.5032014634687403, -0.18648408661111004, -0.16991622206923004, -0.1662198407237606, -0.018967740212434362], [-0.7887325202543043, 0.4437723513468988, 0.556913600022653, 0.5313702249952621, 0.5558028121834392, 0.21519992239755611, 0.19093671228528444, -0.29624059022389865, 0.7547155013996274, -0.43552792556836245, -0.12114499317220831, -0.608530814464573], [0.584693974655031, 0.32358118940736713, -0.14846932588274928, 0.48625461133417475, -0.25215015812268293, 0.0809630998244643, 0.6437610031742802, -0.31989063723118494, 0.07575928331395282, 0.5216561780490233, -0.39905060268658643, 0.6267643615873342], [-0.042650661980439215, 0.5520319960631722, 0.16047804271414057, 0.22141237266171554, 0.21809490257912592, -0.03232247130448005, -0.4003874980653656, 0.40017872489392853, -0.35446108674755156, 0.06482093731622017, 0.1166917088597943, -0.23003052590630507], [0.041873591861625745, 0.3371639920661558, -0.006958551290176927, -0.25652521729554845, -0.8416975387884416, -0.2805461878848386, -0.17064254305480206, -0.1490706452623763, -0.27711544618831113, 0.10893296674654498, -0.16590403063850398, -0.031603823288684135], [0.19391714770323745, -0.28646862496144343, -0.11263281018625225, 0.60444338621735, 0.232392260058799, -0.3789617596693827, -0.024922722296472525, 0.16020118866075655, 0.31508136066425024, 0.031916795623405304, -0.16186971169121836, -0.21433979822027355], [0.1827517817245552, -0.20130998745951323, -0.08769007271037062, -0.20164538391981068, -0.1872504895597197, 0.7247372827946882, -0.3928615161043687, 0.12002851036313542, -0.018607458474723008, 0.07388756484150223, 0.09439588177072747, 0.29657061298375187], [0.03662758400685477, 0.09582289552776334, -0.33345861394026105, -0.5276813897903351, 0.009498104864569512, 0.033465154973780206, 0.5230895215349327, 0.07987814639828404, -0.2137654404091271, -0.20897688597838737, -0.21007197833489386, 0.8561867934616927], [0.04844311604237981, -0.2110872756071205, 0.3152874176859289, -0.1649622253335524, -0.10831025068160481, 0.5840035195847825, -0.6572634808182372, -0.4837459026563546, -0.2987418556787809, 0.02138734581471075, 0.35767219576481185, 0.10239763573658196], [-0.23202618783881046, 0.23986748367900232, 0.1999581868751473, -0.024902120938626447, 0.27576140827508966, 0.2627038172849525, -0.3277308402108977, 0.3117279117098567, -0.3226293096218339, 0.027609385509271396, 0.091740382776157, 0.08977776556922246], [-0.11474014085165402, 0.14137469419650137, -0.057813085852099495, 0.3675515045102488, -0.2086436615659093, -0.01709949450543023, 0.24998705678672872, -0.368625838777925, 0.9211523426433742, 0.0006792826961753483, -0.5164147110683365, 0.5821185383948881], [-0.2912889717641082, 0.028559796177257204, 0.3338063659130735, -0.22897146765622922, -0.12176890330820996, 0.1460932943462646, -0.11245039950262616, -0.4693015841057142, -0.42377578341555194, -0.04397891326806163, 0.4973632886259592, 0.164384488555616]], "b2": [[-0.04057045364026834], [0.10164939734623037], [0.5195079216939527], [0.31901277332201633], [-0.027812508803849535], [-0.00012771367265768078], [-0.0886173150805902], [0.05725914675248916], [0.18915253849452004], [0.025148722677201595], [0.15417791229298758], [0.3038818908332901], [0.23404396612322556]], "W3": [[0.4796540936691416, 0.19249546575373783, -0.14176899298545365, -0.03459003978243881, -0.5631298513476312, -0.26647107108199264, -0.282996746086402, 0.07487789697018911, 0.17942821194185787, -0.1556269774850201, -0.16322098195752222, -0.428944808633602, -0.035434819289712656], [0.06887347670372512, 0.03790954102637207, -0.5830129400474243, 1.0922893617435214, 0.2579175032913224, -0.02643151978565508, -0.21235735052740945, -0.06381877388157435, 0.6530578912469516, -0.17627710796987173, -0.04459768216684326, 0.3676359246408312, 0.29885340145197525], [0.3185849788155619, 0.00997045807427882, 0.06177249617656241, -0.1419574640826332, -0.18820083866708648, 0.5299546882144287, -0.14934687910225464, 0.6110120183684341, -0.06359555071222966, 0.15659663993246747, 0.31992310936734675, -0.0892670931099482, 0.15747667889377945], [-0.06694809791001878, -0.13363585706459694, 0.06553343617868009, -0.14795257207615461, 0.459360084120162, -0.04651122393062718, 0.4803183339454727, -0.7466069993922348, 0.001526281822942477, 0.15936225742110885, -0.05754677370139725, 0.36024454641202425, 0.1889308577377808], [-0.07718687925453116, 0.13468241553812416, 1.2352237367696004, 0.018016335996370834, 0.1767068074649054, -0.12200657722251758, 0.12219925871813116, -0.40299310880137157, -0.35153747229641197, 0.6829281572053673, 0.41315616396536675, 0.39662618981435765, 0.3187220231469227], [0.522513216162646, 0.045190998088814285, 0.8059542093459298, 0.6554803103204453, 0.1079771983123849, 0.4769462783201688, -0.6065343564390786, -0.29798534105722857, 0.1990526782430302, -0.5299721003713365, -0.11441427669222334, 0.2580494870847786, -0.316763738333471], [0.7494480323040086, 0.4041109126798667, 0.11862175084205552, -0.05649700112736153, -0.09919082693845041, 0.24550743424833577, 0.06020916927750218, 0.7137785675409438, -0.6372638398495764, 0.7298947808778938, 0.2868418394983631, -0.7020282536720341, 0.599467390730437]], "b3": [[-0.0020492787135849826], [0.24221397528228067], [0.029386086889052365], [0.06496685855944197], [0.12238838041677949], [0.27513353153024633], [0.16281481369703946]], "W4": [[-0.3297240267729129, 1.3424864445950888, 0.08990123192811061, 0.1375986678025414, -0.5987197575589133, 0.5320418261475917, -0.9350720227020227], [0.028242896086277433, -0.5538811425897924, 0.3855188101467803, -0.07393684538114335, 0.5024971450003954, -0.5672736930327021, 1.212699216774242], [0.8753108586108754, -0.06326716347682268, -0.15650331577757617, 0.3234599724948004, 1.010900812353803, 1.1000986014726963, -0.813493863706508]], "b4": [[0.3059009888092212], [-0.01783410348431694], [0.17816500621209863]]}, {"W1": [[1.273548711451411, 0.6470742729706848], [0.10410567910806763, -1.3988827530202927], [-0.37800991401860623, -0.5213054847818069], [0.14263281306347303, -0.7024510423353212], [0.05811904341340079, -0.529563969679032], [-1.2979258346254967, 0.5385547985346082], [0.8234475301214221, 1.537147220500311], [0.032992772545259216, -0.2264498584797674], [-0.11330817231537614, -1.4102629482171036], [0.6857792271719614, -0.6321537452718324], [-1.0192254282700552, -0.205309296383778], [1.12918504058615, 0.7561896993803618]], "b1": [[0.08464202019137124], [0.2883289349496951], [0.41392793898503355], [0.15097619301373819], [0.272542530617951], [0.265094238105007], [0.08709439680859855], [-0.11487222011359836], [0.2617294625695038], [-0.2519605142977244], [0.08978775001323497], [0.30791360385277955]], "W2": [[-0.2968961209015176, -0.2058234080075322, 0.18048142667802364, -0.04633621672225135, -0.22194393690978845, -0.086455669837791, 0.19009900071342298, 0.5704540462932465, -0.3591474694389018, -0.18083098614976942, -0.2333075754083099, -0.6992187884173379], [-0.28021930428200315, -0.3177612335783303, 0.36787041419735106, -0.04839295807354436, -0.46129444845642376, 0.299660288779215, -0.17144467738939928, -0.5032014634687403, -0.18811736498460824, -0.16991622206923004, -0.16640723719917505, -0.018467282947769642], [-0.7953402989516565, 0.45233989822622883, 0.5519691791496375, 0.5364447928976032, 0.550634581160826, 0.22108802364213426, 0.1998902874481907, -0.2962405809218385, 0.7613599016968499, -0.4357285299377625, -0.11900602095833666, -0.6095220193880244], [0.5882056003953918, 0.3251631045302707, -0.15047590017405096, 0.4869473800189585, -0.2535229092261469, 0.08258793500277037, 0.6501417641339426, -0.31989063582726923, 0.07779646852458134, 0.5217303735116401, -0.39972029809090676, 0.6295295545415153], [-0.04255463148864336, 0.5540070970995407, 0.16134233388115402, 0.2224694572625101, 0.2191177527165784, -0.03359294003733078, -0.40046882811479606, 0.40017872631761187, -0.3526486923655036, 0.0648215334040301, 0.11626818925443988, -0.22945153867973767], [0.041873591861625745, 0.3371639920661558, -0.006958551290176927, -0.25652521729554845, -0.8416975387884416, -0.2805461878848386, -0.17064254305480206, -0.1490706452623763, -0.27711544618831113, 0.10893296674654498, -0.16590403063850398, -0.031603823288684135], [0.19395431096320026, -0.2864054264803924, -0.11257897396178701, 0.6044783186605214, 0.2324393615671732, -0.3789624935877595, -0.02491240623774851, 0.16020118739160422, 0.31513480851670433, 0.03191749348883011, -0.16187056170286834, -0.21427769303526595], [0.18563406373712033, -0.20837110380246956, -0.08411951316390849, -0.20547376195415018, -0.18378412725197743, 0.7202975048586133, -0.3990469198315361, 0.12002851036313542, -0.025205905806196024, 0.07394583888315516, 0.0924998543450346, 0.29858310462423865], [0.04016335004351025, 0.09606114724879183, -0.33517933355734325, -0.5278314339081478, 0.008566618337009925, 0.033978949950686996, 0.5269102819250311, 0.07987814639828404, -0.21291754150458442, -0.2088896564275571, -0.21111031338091793, 0.8584133483070394], [0.04601365469206393, -0.21578540305516136, 0.31604013893549265, -0.16731805775607655, -0.10781978885749721, 0.5827343786223226, -0.6611299255563736, -0.4837459026563546, -0.3036803805141088, 0.02138734581471075, 0.3573565615280322, 0.10157867102432673], [-0.23292413937552178, 0.2393024029074627, 0.2000984034280752, -0.025091922247865512, 0.2758451181258992, 0.262167138388619, -0.32812791309709943, 0.3117279128893036, -0.32358069020534347, 0.027569461368526355, 0.0913952711074005, 0.09022741026210421], [-0.1154472149648616, 0.14702808749380553, -0.061021405669808675, 0.3705886833156866, -0.211405247465417, -0.014129030842691072, 0.2562302165620634, -0.3686258360451257, 0.926480235748574, 0.0006586203361252643, -0.5156019711887627, 0.581813907387351], [-0.2906149308593953, 0.025453304420615008, 0.33585368232216584, -0.23063396055952204, -0.11993431308323299, 0.14412492227647614, -0.11530311122702977, -0.4693015841057142, -0.4268764558319724, -0.04397546647135093, 0.49643734917844545, 0.16568092659120706]], "b2": [[-0.04057045364026834], [0.10295813191546938], [0.5127725451808265], [0.3182571452260827], [-0.026494786415220836], [-0.00012771367265768078], [-0.08848085476993575], [0.06387047051245587], [0.18836134913304403], [0.02592445124032394], [0.15499445968362632], [0.29892221349723547], [0.23830145188126384]], "W3": [[0.4796540936691416, 0.19249546575373783, -0.14176899298545365, -0.03459003978243881, -0.5631298513476312, -0.26647107108199264, -0.282996746086402, 0.07487789697018911, 0.17942821194185787, -0.1556269774850201, -0.16322098195752222, -0.428944808633602, -0.035434819289712656], [0.06887347670372512, 0.03570015542468159, -0.5874365814491075, 1.097608142014578, 0.2587286519533175, -0.02643151978565508, -0.21241337186315032, -0.06329136114270667, 0.6576718746075506, -0.17783311413910566, -0.045570067289303774, 0.36912843603184975, 0.2982257033980152], [0.3185849788155619, 0.009588209181214224, 0.05854634806278688, -0.1416910414206174, -0.1888867370860368, 0.5299546882144287, -0.14934705416309446, 0.6100019357181706, -0.06296114380351263, 0.15588720745807896, 0.3196136817880107, -0.08974513527502043, 0.15698462629613824], [-0.06694809791001878, -0.13399386557252754, 0.0690339973764087, -0.1474229494133957, 0.4597224816165393, -0.04651122393062718, 0.4803280785589192, -0.7472646417860345, 0.0011657853650344887, 0.15904491342627217, -0.056928008437720765, 0.36194139146816484, 0.18894446639745718], [-0.07718687925453116, 0.1354775430882297, 1.240033381427221, 0.01919811257754422, 0.17669230473253375, -0.12200657722251758, 0.12227006921765074, -0.40431260417505427, -0.351930302867822, 0.6804864545725341, 0.41161746021070833, 0.4000906161042509, 0.3169445734407545], [0.522513216162646, 0.043416517909278, 0.8095593355674611, 0.6613086068373034, 0.10954284208484588, 0.4769462783201688, -0.606503812780009, -0.29919953265634824, 0.20225658295716836, -0.5348563303144208, -0.11752227288810002, 0.2639818108295649, -0.3200659878378969], [0.7494480323040086, 0.4070644631590478, 0.11593500998177358, -0.06003475665673833, -0.10145640399550594, 0.24550743424833577, 0.06020915204867416, 0.7155471667286425, -0.6385705415930811, 0.7347028706439453, 0.29004827696584135, -0.706298141779886, 0.6035526655363066]], "b3": [[-0.0020492787135849826], [0.24456196671577807], [0.029808923759282388], [0.06627730731837711], [0.11836262986532231], [0.27104476733946997], [0.1681862969932409]], "W4": [[-0.3297240267729129, 1.3511699874505279, 0.08472800370855929, 0.1355656872093223, -0.6179136542286624, 0.5291463525412435, -0.9461567872626478], [0.028242896086277433, -0.5561925874377585, 0.38262086766572123, -0.07632350770540348, 0.4870845130763601, -0.5757916722633087, 1.2076341038712686], [0.8753108586108754, -0.060291955234781, -0.16010500995395194, 0.3283113169216457, 1.0116409701392486, 1.1081878630643314, -0.8255798199646749]], "b4": [[0.30206476491640666], [-0.022469230428230284], [0.17365717808292974]]}, {"W1": [[1.2782345067886824, 0.6497703601277718], [0.10958463373439532, -1.404128538730817], [-0.3799345070559574, -0.5183060241693812], [0.1483103181336573, -0.7090930780823292], [0.057138462579299325, -0.5250888890089696], [-1.295648594520053, 0.5372605624884069], [0.8178786931452855, 1.5486840228825207], [0.032992750817606074, -0.2264497876010616], [-0.10913428335112244, -1.419024871220756], [0.6868034467143564, -0.6320907744966652], [-1.0162540374477578, -0.21041342832659327], [1.1322288867483639, 0.7544429081798143]], "b1": [[0.08292807668805202], [0.2915305759485846], [0.4140346595986399], [0.15368936807657088], [0.2713608752373714], [0.2692930889920941], 